{"learner":{"attributes":{"best_iteration":"29","best_ntree_limit":"30","best_score":"0.913645004050846","scikit_learn":"{\"use_label_encoder\": false, \"n_estimators\": 30, \"objective\": \"binary:logistic\", \"max_depth\": 6, \"max_leaves\": null, \"max_bin\": null, \"grow_policy\": null, \"learning_rate\": null, \"verbosity\": null, \"booster\": null, \"tree_method\": null, \"gamma\": null, \"min_child_weight\": null, \"max_delta_step\": null, \"subsample\": null, \"sampling_method\": null, \"colsample_bytree\": null, \"colsample_bylevel\": null, \"colsample_bynode\": null, \"reg_alpha\": null, \"reg_lambda\": null, \"scale_pos_weight\": null, \"base_score\": null, \"missing\": NaN, \"num_parallel_tree\": null, \"random_state\": 42, \"n_jobs\": 4, \"monotone_constraints\": null, \"interaction_constraints\": null, \"importance_type\": null, \"gpu_id\": null, \"validate_parameters\": null, \"predictor\": null, \"enable_categorical\": false, \"max_cat_to_onehot\": null, \"eval_metric\": \"auc\", \"early_stopping_rounds\": 10, \"callbacks\": null, \"classes_\": [0, 1], \"n_classes_\": 2, \"evals_result_\": {\"validation_0\": {\"auc\": [0.7139967517348577, 0.7442213406621915, 0.7698647909109332, 0.7883629433664855, 0.7997920419409644, 0.8175134117192917, 0.834194903618652, 0.8449069593577855, 0.8515722904606225, 0.858744962806545, 0.8639471748968921, 0.8690734212220781, 0.873220885348285, 0.8804206647058354, 0.8829738696885745, 0.8845833499366196, 0.8874328519038569, 0.8913397166903092, 0.8941068563677343, 0.8969136056426644, 0.8992184573833308, 0.9009257709474757, 0.9028998560086928, 0.9056064128502694, 0.9065944857733642, 0.9080140279164076, 0.9096162380257189, 0.9105995489224119, 0.9123320688273264, 0.913645004050846]}}, \"_estimator_type\": \"classifier\"}"},"feature_names":[],"feature_types":[],"gradient_booster":{"model":{"gbtree_model_param":{"num_parallel_tree":"1","num_trees":"30","size_leaf_vector":"0"},"tree_info":[0,0,0,0,0,0,0,0,0,0,0,0,0,0,0,0,0,0,0,0,0,0,0,0,0,0,0,0,0,0],"trees":[{"base_weights":[-1.0635251E0,-6.783888E-1,-1.2399049E0,-9.2894696E-2,-9.142196E-1,-1.3319447E0,-8.0787015E-1,-6.930829E-1,5.9522474E-1,-9.62854E-1,9.158148E-1,-6.932811E-1,-1.3760213E0,1.030283E0,-9.834792E-1,1.989418E0,-7.302309E-1,-1.651698E-1,1.345089E0,-6.3758415E-1,-1.1660833E0,1.9980574E0,-8.416076E-1,1.9846792E0,-9.097102E-1,-1.4382317E0,-1.0297351E0,1.5485642E0,-8.704062E-1,-4.1953117E-1,-1.0998642E0,1.985321E0,-7.5759596E-1,1.9977728E0,-5.469019E-1,6.793638E-1,1.8009025E0,-7.39992E-1,9.5730025E-1,-8.180647E-1,-1.3475404E0,1.9757576E0,-1.2603978E0,-1.2E0,1.9974376E0,7.411765E-1,-1.0342149E0,-1.537997E0,-1.2249651E0,-1.1108611E0,1.0064917E0,5.833333E-1,1.7207566E0,1.2903226E-2,-1.0621469E0,-1.6869402E-1,-9.85516E-1,-1.2522647E0,-9.945186E-1,-9.7236925E-1,-4.6817392E-1,3.1676227E-1,-9.317423E-1,5.6725398E-2,1.2338632E0,1.8962257E0,1.0397022E0,-7.8817147E-1,1.635353E0,1.8841652E0,-2.1667966E-1,-9.1121596E-1,1.3872023E0,-9.4184285E-1,-1.5058656E0,1.9496856E0,-1.5060768E0,1.9949142E0,-9.748045E-1,-1.0877669E0,1.9872814E0,-1.6301209E0,-1.3151075E0,-1.2402829E0,1.9897305E0,-1.1621984E0,1.7618438E0,1.8905873E0,-1.0688031E0,-1.010101E-1,9.378293E-1,1.835958E0,1.355967E0,-6.0465115E-1,3.7037036E-1,2.8070176E-1,-1.1360477E0,-5.5099046E-1,5.0451964E-2,-1.0355165E0,-3.562753E-1,-1.077229E0,-1.3210033E0,-9.119007E-1,-1.2227973E0],"categories":[],"categories_nodes":[],"categories_segments":[],"categories_sizes":[],"default_left":[1,1,1,1,1,1,1,1,1,1,1,1,1,1,1,0,1,1,1,1,1,0,1,1,1,1,1,1,1,1,1,0,1,0,1,1,1,1,1,1,1,0,1,0,0,1,1,1,1,1,1,1,1,1,1,1,1,1,1,0,0,0,0,0,0,0,0,0,0,0,0,0,0,0,0,0,0,0,0,0,0,0,0,0,0,0,0,0,0,0,0,0,0,0,0,0,0,0,0,0,0,0,0,0,0],"id":0,"left_children":[1,3,5,7,9,11,13,15,17,19,21,23,25,27,29,-1,31,33,35,37,39,-1,41,43,45,47,49,51,53,55,57,-1,59,-1,61,63,65,67,69,71,73,-1,75,-1,-1,77,79,81,83,85,87,89,91,93,95,97,99,101,103,-1,-1,-1,-1,-1,-1,-1,-1,-1,-1,-1,-1,-1,-1,-1,-1,-1,-1,-1,-1,-1,-1,-1,-1,-1,-1,-1,-1,-1,-1,-1,-1,-1,-1,-1,-1,-1,-1,-1,-1,-1,-1,-1,-1,-1,-1],"loss_changes":[1.948075E4,1.2438809E4,7.8207188E3,1.0683928E4,5.7165586E3,4.56375E3,1.1153061E4,1.3783359E3,6.872042E3,4.1345625E3,3.1646365E3,6.070387E3,3.26625E3,2.969675E3,2.0694062E3,0E0,1.01431006E3,4.9424883E3,1.8400898E3,3.9300713E3,2.430211E3,0E0,7.511273E2,3.422119E1,1.9921187E3,2.7339062E3,3.8176875E3,3.925708E2,1.09466705E2,7.65975E2,4.184336E2,0E0,8.383335E2,0E0,1.6913253E3,8.5192725E2,2.5933496E2,2.588495E3,1.5803595E3,2.7122373E3,1.6239219E3,0E0,4.390598E2,0E0,0E0,1.4648899E3,1.4599238E3,1.7965625E3,2.020668E3,3.278875E3,1.6271584E3,8.742964E1,8.193701E1,2.588676E1,5.3014038E1,3.1340213E2,5.176416E1,1.27078125E2,2.9048242E2,0E0,0E0,0E0,0E0,0E0,0E0,0E0,0E0,0E0,0E0,0E0,0E0,0E0,0E0,0E0,0E0,0E0,0E0,0E0,0E0,0E0,0E0,0E0,0E0,0E0,0E0,0E0,0E0,0E0,0E0,0E0,0E0,0E0,0E0,0E0,0E0,0E0,0E0,0E0,0E0,0E0,0E0,0E0,0E0,0E0,0E0],"parents":[2147483647,0,0,1,1,2,2,3,3,4,4,5,5,6,6,7,7,8,8,9,9,10,10,11,11,12,12,13,13,14,14,16,16,17,17,18,18,19,19,20,20,22,22,23,23,24,24,25,25,26,26,27,27,28,28,29,29,30,30,32,32,34,34,35,35,36,36,37,37,38,38,39,39,40,40,42,42,45,45,46,46,47,47,48,48,49,49,50,50,51,51,52,52,53,53,54,54,55,55,56,56,57,57,58,58],"right_children":[2,4,6,8,10,12,14,16,18,20,22,24,26,28,30,-1,32,34,36,38,40,-1,42,44,46,48,50,52,54,56,58,-1,60,-1,62,64,66,68,70,72,74,-1,76,-1,-1,78,80,82,84,86,88,90,92,94,96,98,100,102,104,-1,-1,-1,-1,-1,-1,-1,-1,-1,-1,-1,-1,-1,-1,-1,-1,-1,-1,-1,-1,-1,-1,-1,-1,-1,-1,-1,-1,-1,-1,-1,-1,-1,-1,-1,-1,-1,-1,-1,-1,-1,-1,-1,-1,-1,-1],"split_conditions":[4.5E0,2.7130395E-1,6.5E0,-2.5008196E-1,7.386471E-1,-2.2611792E-1,2.6534182E-1,-8.6127675E-1,-8.1357494E-2,-2.8838456E-1,-6.520437E-1,1.5E0,1.4434636E-1,2.8249678E-1,3.675567E-1,5.968254E-1,-5.1280665E-1,-4.583981E-1,-1.2807396E-1,5.451028E-1,-2.122688E-1,5.994172E-1,-1.8554632E-1,-6.200058E-1,-4.6399945E-1,1.4062801E-1,6.294832E-1,-3.13448E-1,2.5614288E-1,3.327319E-1,-1.87352E-1,5.955963E-1,1.898658E-1,5.9933186E-1,-3.0829603E-2,-1.3062531E-1,2.4990983E-1,7.0128894E-1,2.256894E-1,2.2603634E-1,-1.6279498E-1,5.927273E-1,1.0477299E-1,-3.6E-1,5.992313E-1,3.5E0,3.0006433E-1,3.5E0,7.890395E-1,8.543192E-1,-2.1994688E-1,-1.6349274E-1,2.1699432E-1,-1.8897292E-1,-3.118472E-1,-1.8297529E-1,5.029863E-1,-2.4227387E-1,3.1213436E-1,-2.917108E-1,-1.4045218E-1,9.502868E-2,-2.7952272E-1,1.701762E-2,3.7015897E-1,5.6886774E-1,3.1191066E-1,-2.3645145E-1,4.9060592E-1,5.6524956E-1,-6.50039E-2,-2.733648E-1,4.161607E-1,-2.8255287E-1,-4.517597E-1,5.849057E-1,-4.5182306E-1,5.9847426E-1,-2.9244137E-1,-3.2633007E-1,5.9618443E-1,-4.890363E-1,-3.9453226E-1,-3.720849E-1,5.969192E-1,-3.4865955E-1,5.285532E-1,5.671762E-1,-3.2064092E-1,-3.0303031E-2,2.813488E-1,5.5078745E-1,4.0679014E-1,-1.8139535E-1,1.1111111E-1,8.421053E-2,-3.4081432E-1,-1.6529715E-1,1.513559E-2,-3.1065497E-1,-1.06882595E-1,-3.2316872E-1,-3.96301E-1,-2.735702E-1,-3.668392E-1],"split_indices":[129,57,128,60,9,103,25,29,11,125,16,128,65,44,25,0,51,59,30,2,107,0,96,6,17,85,15,8,41,41,43,0,111,0,106,13,28,39,17,37,97,0,116,0,0,128,37,128,0,34,16,13,20,13,127,46,108,82,38,0,0,0,0,0,0,0,0,0,0,0,0,0,0,0,0,0,0,0,0,0,0,0,0,0,0,0,0,0,0,0,0,0,0,0,0,0,0,0,0,0,0,0,0,0,0],"split_type":[0,0,0,0,0,0,0,0,0,0,0,0,0,0,0,0,0,0,0,0,0,0,0,0,0,0,0,0,0,0,0,0,0,0,0,0,0,0,0,0,0,0,0,0,0,0,0,0,0,0,0,0,0,0,0,0,0,0,0,0,0,0,0,0,0,0,0,0,0,0,0,0,0,0,0,0,0,0,0,0,0,0,0,0,0,0,0,0,0,0,0,0,0,0,0,0,0,0,0,0,0,0,0,0,0],"sum_hessian":[2.8678725E5,9.008525E4,1.96702E5,2.5867E4,6.421825E4,1.6215475E5,3.454725E4,1.381625E4,1.205075E4,6.255625E4,1.662E3,1.04695E4,1.5168525E5,3.01225E3,3.1535E4,1.88E2,1.362825E4,5.98375E3,6.067E3,2.4057E4,3.849925E4,1.0285E3,6.335E2,7.8225E2,9.68725E3,1.2858225E5,2.3103E4,2.367E3,6.4525E2,5.3955E3,2.61395E4,1.3525E2,1.3493E4,8.97E2,5.08675E3,2.46675E3,3.60025E3,2.2606E4,1.451E3,1.3196E4,2.530325E4,8.15E1,5.52E2,2.75E0,7.795E2,6.79E2,9.00825E3,8.7598E4,4.098425E4,2.221825E4,8.8475E2,3.59E2,2.008E3,1.1525E2,5.3E2,3.7395E3,1.656E3,1.067925E4,1.546025E4,7.744E3,5.749E3,1.568E3,3.51875E3,1.1625E3,1.30425E3,3.19825E3,4.02E2,2.215725E4,4.4875E2,8.105E2,6.405E2,1.266175E4,5.3425E2,7.10475E3,1.81985E4,3.875E1,5.1325E2,3.9225E2,2.8675E2,8.852E3,1.5625E2,6.1976E4,2.5622E4,4.07905E4,1.9375E2,2.182875E4,3.895E2,6.205E2,2.6425E2,1.2275E2,2.3625E2,1.523E3,4.85E2,4.2E1,7.325E1,2.75E1,5.025E2,1.362E3,2.3775E3,1.5335E3,1.225E2,3.016E3,7.66325E3,1.13555E4,4.10475E3],"tree_param":{"num_deleted":"0","num_feature":"131","num_nodes":"105","size_leaf_vector":"0"}},{"base_weights":[-7.7654415E-1,-4.8948863E-1,-9.097588E-1,-7.176229E-2,-6.646045E-1,-9.806416E-1,-5.828027E-1,-5.24426E-1,3.9747182E-1,-6.8638116E-1,1.5465598E0,-1.0124382E0,-3.3496755E-1,4.8355296E-1,-7.465776E-1,1.5416045E0,-5.519105E-1,-1.67506E-1,9.133636E-1,-8.682614E-1,-4.50968E-1,-4.403298E-1,-1.0395764E0,1.993997E0,-5.303057E-1,1.1366434E0,-3.365607E-1,-5.4991895E-1,-8.4658766E-1,-4.1928437E-1,-9.2399055E-1,1.5472938E0,-4.3621823E-1,1.3874844E0,3.766025E-1,-3.1449068E-1,-9.9949867E-1,6.475475E-1,-5.694845E-1,2.3150883E0,-6.186399E-1,-9.5657617E-1,-1.2260941E0,1.5447016E0,2.4765165E0,1.2787648E0,-7.073803E-1,3.716496E-1,1.3132361E0,-8.069144E-1,-8.834931E-3,-4.1479915E-1,-8.483456E-1,-7.6374865E-1,-9.397108E-1,1.9088299E0,-4.5679003E-1,-9.9692327E-1,2.2219725E0,2.1392047E0,-5.3874665E-1,1.2366307E0,1.5931768E0,1.6203398E0,4.107178E-2,1.7307498E0,-4.4167677E-1,-1.022209E0,1.7459877E0,-1.550111E-1,1.724398E0,-6.0774404E-1,1.7351712E0,1.5187887E0,2.4219787E0,2.377002E0,-6.939953E-1,-3.4132376E-1,-1.0114032E0,-1.3047149E0,-5.921727E-1,2.216539E0,-1.3007891E0,-7.986941E-1,1.7010692E0,-4.971735E-2,6.3562447E-1,9.2082626E-1,1.4476002E0,-1.0932324E0,-6.3231707E-1,-5.0590444E-1,1.5385264E-1,-6.4283365E-1,-2.658124E-1,-7.4268335E-1,-1.1292981E0,-7.713644E-1,6.1636084E-1,-9.577623E-1,4.352652E-1],"categories":[],"categories_nodes":[],"categories_segments":[],"categories_sizes":[],"default_left":[1,1,1,1,1,1,1,1,1,1,0,1,1,1,1,0,1,1,1,1,1,1,1,1,1,1,1,1,1,1,1,0,1,1,1,1,1,1,1,1,1,1,1,0,0,1,1,1,1,1,1,1,1,1,1,0,0,0,0,0,0,0,0,0,0,0,0,0,0,0,0,0,0,0,0,0,0,0,0,0,0,0,0,0,0,0,0,0,0,0,0,0,0,0,0,0,0,0,0,0,0],"id":1,"left_children":[1,3,5,7,9,11,13,15,17,19,-1,21,23,25,27,-1,29,31,33,35,37,39,41,43,45,47,49,51,53,55,57,-1,59,61,63,65,67,69,71,73,75,77,79,-1,-1,81,83,85,87,89,91,93,95,97,99,-1,-1,-1,-1,-1,-1,-1,-1,-1,-1,-1,-1,-1,-1,-1,-1,-1,-1,-1,-1,-1,-1,-1,-1,-1,-1,-1,-1,-1,-1,-1,-1,-1,-1,-1,-1,-1,-1,-1,-1,-1,-1,-1,-1,-1,-1],"loss_changes":[1.0568781E4,6.408754E3,4.374547E3,5.4972617E3,2.9735723E3,3.1848281E3,5.874912E3,7.4886646E2,3.7041196E3,2.617045E3,0E0,2.2952656E3,3.314411E3,2.3993682E3,5.73041E2,0E0,6.411714E2,2.7959446E3,1.689978E3,2.5059277E3,3.4695176E3,3.292301E3,2.1842188E3,1.1840283E2,2.1536973E3,3.3638184E2,3.061853E2,3.9614185E2,1.4838086E2,8.379243E2,7.858828E2,0E0,1.3861816E3,1.07464355E2,1.3006603E3,1.7197692E3,1.7400098E3,2.2432458E3,2.1218477E3,3.0990479E1,1.421928E3,3.2952188E3,2.1657227E3,0E0,0E0,1.4531125E3,1.347698E3,5.2206306E1,1.05466064E2,4.0084656E1,9.482892E1,2.2984375E2,9.0106445E1,1.08041016E2,2.2615137E2,0E0,0E0,0E0,0E0,0E0,0E0,0E0,0E0,0E0,0E0,0E0,0E0,0E0,0E0,0E0,0E0,0E0,0E0,0E0,0E0,0E0,0E0,0E0,0E0,0E0,0E0,0E0,0E0,0E0,0E0,0E0,0E0,0E0,0E0,0E0,0E0,0E0,0E0,0E0,0E0,0E0,0E0,0E0,0E0,0E0,0E0],"parents":[2147483647,0,0,1,1,2,2,3,3,4,4,5,5,6,6,7,7,8,8,9,9,11,11,12,12,13,13,14,14,16,16,17,17,18,18,19,19,20,20,21,21,22,22,23,23,24,24,25,25,26,26,27,27,28,28,29,29,30,30,32,32,33,33,34,34,35,35,36,36,37,37,38,38,39,39,40,40,41,41,42,42,45,45,46,46,47,47,48,48,49,49,50,50,51,51,52,52,53,53,54,54],"right_children":[2,4,6,8,10,12,14,16,18,20,-1,22,24,26,28,-1,30,32,34,36,38,40,42,44,46,48,50,52,54,56,58,-1,60,62,64,66,68,70,72,74,76,78,80,-1,-1,82,84,86,88,90,92,94,96,98,100,-1,-1,-1,-1,-1,-1,-1,-1,-1,-1,-1,-1,-1,-1,-1,-1,-1,-1,-1,-1,-1,-1,-1,-1,-1,-1,-1,-1,-1,-1,-1,-1,-1,-1,-1,-1,-1,-1,-1,-1,-1,-1,-1,-1,-1,-1],"split_conditions":[4.5E0,2.8091955E-1,6.5E0,-2.7561134E-1,1.0082067E0,2.4687079E-1,3.0460596E-1,-8.6127675E-1,-9.150715E-2,5.5920017E-1,4.6396795E-1,1.1899125E-2,1.5E0,2.559519E-1,4.4870365E-1,4.6248138E-1,6.6043437E-1,-4.583981E-1,2.4062522E-1,6.7720145E-2,-2.3437355E-1,1.5E0,3.8912956E-2,-2.2613578E-1,-7.02048E-1,-3.1999034E-1,-2.1354365E-1,1.8444157E-1,6.323792E-1,-5.902431E-1,4.4707617E-1,4.6418816E-1,-4.538656E-1,3.73375E-1,-3.502371E-1,2.5E0,9.4516027E-1,1.164785E-1,9.2536235E-1,-2.2937405E-1,-6.1201036E-1,-2.594578E-1,2.0217772E-1,4.634105E-1,7.4295497E-1,3.8712752E-1,1.6048902E-1,-2.6136923E-1,3.5E0,2.669077E-1,-4.0283012E-1,-2.627805E-1,-1.6652419E-1,4.0995532E-1,6.769735E-1,5.72649E-1,-1.3703701E-1,-2.99077E-1,6.6659176E-1,6.417614E-1,-1.61624E-1,3.709892E-1,4.7795308E-1,4.8610196E-1,1.2321535E-2,5.19225E-1,-1.3250303E-1,-3.0666274E-1,5.237963E-1,-4.650333E-2,5.1731944E-1,-1.8232322E-1,5.205514E-1,4.5563662E-1,7.265936E-1,7.131006E-1,-2.0819859E-1,-1.0239714E-1,-3.0342096E-1,-3.914145E-1,-1.7765181E-1,6.649617E-1,-3.9023677E-1,-2.3960823E-1,5.103208E-1,-1.49152065E-2,1.9068734E-1,2.762479E-1,4.342801E-1,-3.2796973E-1,-1.8969513E-1,-1.5177134E-1,4.6155795E-2,-1.928501E-1,-7.974372E-2,-2.2280501E-1,-3.3878943E-1,-2.3140933E-1,1.8490826E-1,-2.873287E-1,1.3057958E-1],"split_indices":[129,57,128,60,9,90,25,29,11,104,0,117,128,44,25,0,104,59,44,116,42,128,123,103,16,8,46,9,25,26,51,0,14,10,36,128,34,11,53,103,35,82,115,0,0,23,37,60,130,89,8,30,124,119,87,0,0,0,0,0,0,0,0,0,0,0,0,0,0,0,0,0,0,0,0,0,0,0,0,0,0,0,0,0,0,0,0,0,0,0,0,0,0,0,0,0,0,0,0,0,0],"split_type":[0,0,0,0,0,0,0,0,0,0,0,0,0,0,0,0,0,0,0,0,0,0,0,0,0,0,0,0,0,0,0,0,0,0,0,0,0,0,0,0,0,0,0,0,0,0,0,0,0,0,0,0,0,0,0,0,0,0,0,0,0,0,0,0,0,0,0,0,0,0,0,0,0,0,0,0,0,0,0,0,0,0,0,0,0,0,0,0,0,0,0,0,0,0,0,0,0,0,0,0,0],"sum_hessian":[2.763909E5,8.761018E4,1.8878072E5,2.5879025E4,6.1731152E4,1.5514411E5,3.363661E4,1.317203E4,1.2706995E4,6.1129805E4,6.0134705E2,1.4786198E5,7.2821274E3,4.4779917E3,2.915862E4,1.7220454E2,1.2999826E4,6.0652856E3,6.6417095E3,3.4484434E4,2.664537E4,6.6970303E3,1.4116495E5,5.628003E2,6.719327E3,2.492625E3,1.9853665E3,9.831857E3,1.9326762E4,9.585313E3,3.4145125E3,8.2103754E2,5.244248E3,3.525793E3,3.1159165E3,6.607352E3,2.7877084E4,2.5943323E3,2.4051035E4,4.0631284E2,6.2907173E3,9.769632E4,4.3468625E4,2.9360913E2,2.691912E2,5.985064E2,6.120821E3,4.6806918E2,2.0245558E3,8.146765E2,1.17069E3,6.769289E3,3.0625679E3,1.0233028E4,9.093734E3,1.5117902E2,9.434135E3,3.3378152E3,7.66973E1,2.000215E2,5.0442266E3,2.0380847E3,1.4877083E3,6.6119293E2,2.4547236E3,3.860934E2,6.221259E3,2.7649002E4,2.2808165E2,1.4869727E3,1.1073597E3,2.365901E4,3.920271E2,4.9886127E1,3.5642673E2,1.5361061E2,6.137107E3,7.994269E3,8.9702055E4,3.8671426E4,4.7971987E3,4.3903857E2,1.5946786E2,5.8978774E3,2.2294333E2,1.8060005E2,2.8746912E2,5.184062E2,1.5061497E3,3.06611E2,5.0806552E2,2.881568E2,8.825332E2,2.673697E3,4.0955923E3,2.2282122E3,8.343557E2,1.0177309E4,5.5719624E1,8.976193E3,1.1754109E2],"tree_param":{"num_deleted":"0","num_feature":"131","num_nodes":"101","size_leaf_vector":"0"}},{"base_weights":[-5.9067655E-1,-2.60106E-1,-6.7782784E-1,1.1445053E0,-2.9720503E-1,-7.268323E-1,-2.6803222E-1,1.9385017E0,-1.1935124E0,-1.8159594E-2,-4.8607945E-1,-8.480403E-1,-5.471274E-1,1.7919312E0,-3.64752E-1,2.353153E0,1.7672228E0,-1.4452906E0,2.4359326E0,1.5333693E0,-7.4907824E-2,1.6944813E0,-5.1697034E-1,-2.796549E-1,-9.053001E-1,-1.5544322E-1,-6.677306E-1,-4.2628354E-1,1.844396E0,-3.9834958E-1,2.2037287E0,2.1416771E0,2.613267E0,1.4734715E0,1.9154322E0,2.7731862E0,1.6192312E0,1.8813986E0,-3.5076818E-1,3.7712106E-1,-2.544564E-1,2.0802174E0,-9.462287E-1,-7.2717637E-1,-2.7456653E-1,-4.4492698E-1,1.7249801E0,-9.496793E-1,-3.1559378E-1,5.297798E-1,-5.269183E-1,-6.1294067E-1,-8.038927E-1,-1.3806008E0,2.1395173E0,1.5527265E0,1.980303E0,5.452629E-1,-4.8233435E-1,2.4608471E0,1.9365867E0,1.7467217E0,1.3945676E0,2.3416305E0,1.6781415E0,-5.646837E-1,2.0409932E0,2.0088975E0,-1.2486507E0,1.8439212E-1,1.404646E0,6.112182E-1,-3.504347E-1,2.2906878E0,1.7534819E0,2.4969895E0,-1.5080254E0,-7.563432E-1,2.1173663E0,1.3361424E0,-3.924928E-1,8.3136463E-1,-6.7126817E-1,2.1940846E0,-1.17889136E-1,-7.097263E-1,-1.0322863E0,-7.638254E-1,1.0538243E0,1.0876925E0,-4.9828637E-2,-2.627281E-1,-7.3564434E-1,-7.9785645E-1,-5.607528E-1,-9.293661E-2,-8.4458774E-1,1.4361104E0,2.3557904E0,2.0876656E0,1.6737019E0,-5.3694195E-1,2.0837343E0,-6.394962E-1,-1.0798708E-1,1.05266E0,2.4829545E0,2.4374504E0,1.6998688E0],"categories":[],"categories_nodes":[],"categories_segments":[],"categories_sizes":[],"default_left":[1,1,1,1,1,1,1,1,1,1,1,1,1,1,1,1,1,0,1,1,1,1,1,1,1,1,1,1,1,1,1,0,0,1,1,0,0,1,1,1,1,1,1,1,1,1,1,1,1,1,1,1,1,0,0,1,1,1,1,1,1,0,0,0,0,0,0,0,0,0,0,0,0,0,0,0,0,0,0,0,0,0,0,0,0,0,0,0,0,0,0,0,0,0,0,0,0,0,0,0,0,0,0,0,0,0,0,0,0],"id":2,"left_children":[1,3,5,7,9,11,13,15,17,19,21,23,25,27,29,31,33,-1,35,37,39,41,43,45,47,49,51,53,55,57,59,-1,-1,61,63,-1,-1,65,67,69,71,73,75,77,79,81,83,85,87,89,91,93,95,-1,-1,97,99,101,103,105,107,-1,-1,-1,-1,-1,-1,-1,-1,-1,-1,-1,-1,-1,-1,-1,-1,-1,-1,-1,-1,-1,-1,-1,-1,-1,-1,-1,-1,-1,-1,-1,-1,-1,-1,-1,-1,-1,-1,-1,-1,-1,-1,-1,-1,-1,-1,-1,-1],"loss_changes":[7.4330625E3,2.8055076E3,4.1001406E3,2.5742231E3,2.764213E3,3.9718984E3,4.3461006E3,6.9319824E1,3.2503983E2,1.8641752E3,2.107689E3,3.5443125E3,3.4701445E3,1.1463672E2,1.7986492E3,1.0873535E1,2.922876E1,0E0,1.8987579E0,4.905454E2,1.6578312E3,4.4723877E2,1.5712988E3,3.303625E3,2.5891016E3,4.40284E3,4.1853516E2,6.0289352E1,3.4815674E1,1.6300022E3,1.3721069E1,0E0,0E0,2.9802856E0,4.5218384E1,0E0,0E0,2.4738745E2,2.5108289E2,1.149725E3,1.2148667E3,2.2234253E1,1.12869095E2,1.3719473E3,2.7215137E3,2.6612842E3,6.568496E2,1.8232109E3,4.2523584E3,1.9663961E3,6.183037E2,3.8610352E2,4.661084E2,0E0,0E0,2.5503906E1,1.7849854E1,2.8002402E3,1.1109688E3,1.5407715E0,1.2063416E1,0E0,0E0,0E0,0E0,0E0,0E0,0E0,0E0,0E0,0E0,0E0,0E0,0E0,0E0,0E0,0E0,0E0,0E0,0E0,0E0,0E0,0E0,0E0,0E0,0E0,0E0,0E0,0E0,0E0,0E0,0E0,0E0,0E0,0E0,0E0,0E0,0E0,0E0,0E0,0E0,0E0,0E0,0E0,0E0,0E0,0E0,0E0,0E0],"parents":[2147483647,0,0,1,1,2,2,3,3,4,4,5,5,6,6,7,7,8,8,9,9,10,10,11,11,12,12,13,13,14,14,15,15,16,16,18,18,19,19,20,20,21,21,22,22,23,23,24,24,25,25,26,26,27,27,28,28,29,29,30,30,33,33,34,34,37,37,38,38,39,39,40,40,41,41,42,42,43,43,44,44,45,45,46,46,47,47,48,48,49,49,50,50,51,51,52,52,55,55,56,56,57,57,58,58,59,59,60,60],"right_children":[2,4,6,8,10,12,14,16,18,20,22,24,26,28,30,32,34,-1,36,38,40,42,44,46,48,50,52,54,56,58,60,-1,-1,62,64,-1,-1,66,68,70,72,74,76,78,80,82,84,86,88,90,92,94,96,-1,-1,98,100,102,104,106,108,-1,-1,-1,-1,-1,-1,-1,-1,-1,-1,-1,-1,-1,-1,-1,-1,-1,-1,-1,-1,-1,-1,-1,-1,-1,-1,-1,-1,-1,-1,-1,-1,-1,-1,-1,-1,-1,-1,-1,-1,-1,-1,-1,-1,-1,-1,-1,-1],"split_conditions":[1.3015512E-1,-4.3901742E-1,3.0045193E-1,1.2497784E-1,-3.8604248E-1,4.5E0,1.5E0,-9.430514E-2,1.2500298E-1,-2.1867818E-1,-6.313175E-1,-1.6616723E-1,3.760581E-1,-7.2696424E-1,7.410804E-1,-3.97074E-2,4.5E0,-4.335872E-1,1.8439879E-1,9.1173637E-1,2.5524443E-1,4.65695E-1,-5.589613E-1,5.748458E-1,3.983091E-1,2.5386414E-1,4.735474E-1,-4.407035E-1,-4.0726912E-1,-3.0081984E-1,6.0109854E-1,6.4250314E-1,7.8398013E-1,-1.7457888E-1,1.3659196E-1,8.319559E-1,4.857694E-1,-1.008173E0,4.2727664E-1,-9.938846E-2,-5.169916E-1,2.4665621E-1,4.293754E-1,5.397261E-1,2.5E0,9.174772E-3,-1.2579547E-1,-7.60504E-2,-1.7971623E-1,1.9122861E-1,3.7749726E-1,-3.1685084E-1,-1.9397023E-1,-4.1418025E-1,6.4185524E-1,2.4193771E-1,5.7848525E-1,-2.9492763E-1,-2.995254E-1,8.406037E-2,7.411027E-2,5.2401656E-1,4.183703E-1,7.0248914E-1,5.0344247E-1,-1.694051E-1,6.12298E-1,6.026693E-1,-3.7459522E-1,5.531764E-2,4.2139384E-1,1.8336546E-1,-1.0513041E-1,6.872064E-1,5.260446E-1,7.490969E-1,-4.5240763E-1,-2.2690296E-1,6.352099E-1,4.0084276E-1,-1.1774784E-1,2.4940939E-1,-2.0138046E-1,6.582254E-1,-3.5366744E-2,-2.129179E-1,-3.096859E-1,-2.2914763E-1,3.161473E-1,3.2630777E-1,-1.4948592E-2,-7.881843E-2,-2.206933E-1,-2.3935695E-1,-1.6822585E-1,-2.7880985E-2,-2.5337633E-1,4.3083313E-1,7.0673716E-1,6.262997E-1,5.021106E-1,-1.610826E-1,6.251203E-1,-1.9184887E-1,-3.2396127E-2,3.15798E-1,7.448864E-1,7.3123515E-1,5.0996065E-1],"split_indices":[92,56,85,92,125,128,128,1,92,45,14,97,25,16,15,106,129,0,118,84,44,15,8,15,92,41,49,65,88,19,104,0,0,2,65,0,0,62,48,30,77,90,91,29,128,38,23,111,58,49,41,43,91,0,0,3,115,46,30,89,1,0,0,0,0,0,0,0,0,0,0,0,0,0,0,0,0,0,0,0,0,0,0,0,0,0,0,0,0,0,0,0,0,0,0,0,0,0,0,0,0,0,0,0,0,0,0,0,0],"split_type":[0,0,0,0,0,0,0,0,0,0,0,0,0,0,0,0,0,0,0,0,0,0,0,0,0,0,0,0,0,0,0,0,0,0,0,0,0,0,0,0,0,0,0,0,0,0,0,0,0,0,0,0,0,0,0,0,0,0,0,0,0,0,0,0,0,0,0,0,0,0,0,0,0,0,0,0,0,0,0,0,0,0,0,0,0,0,0,0,0,0,0,0,0,0,0,0,0,0,0,0,0,0,0,0,0,0,0,0,0],"sum_hessian":[2.5801131E5,5.3830945E4,2.0418038E5,1.384445E3,5.24465E4,1.8237117E5,2.1809201E4,1.033602E3,3.5084286E2,2.1170312E4,3.1276188E4,1.0890966E5,7.3461516E4,9.7728107E2,2.083192E4,2.9841846E2,7.3518365E2,3.2864615E2,2.219671E1,7.4607855E2,2.0424232E4,4.3613223E2,3.0840055E4,9.968078E3,9.894158E4,1.7294924E4,5.6166586E4,2.2415754E1,9.548653E2,2.0563777E4,2.681441E2,1.696911E2,1.2872737E2,2.5020961E2,4.84974E2,1.4014068E1,8.182644E0,6.2975464E2,1.1632391E2,5.806009E3,1.4618225E4,3.8073016E2,5.5402092E1,1.6515906E4,1.4324148E4,9.209573E3,7.5850507E2,9.201615E4,6.9254243E3,6.0797637E3,1.121516E4,4.00546E4,1.6111987E4,1.6675453E1,5.7403026E0,3.0745746E2,6.4740784E2,1.6802135E3,1.8883562E4,1.3245108E2,1.3569302E2,5.1326115E1,1.988835E2,1.702749E2,3.1469913E2,3.841626E1,5.913384E2,3.172146E1,8.460245E1,4.889991E3,9.1601764E2,1.4584443E3,1.315978E4,2.2790903E2,1.5282112E2,7.288243E0,4.811385E1,1.6349005E4,1.6690204E2,9.7647864E2,1.3347669E4,1.3868328E3,7.82274E3,6.044508E2,1.5405424E2,2.3567615E4,6.844854E4,5.2179507E3,1.7074735E3,3.0974143E3,2.9823496E3,4.9509146E3,6.264246E3,8.813104E3,3.1241496E4,8.724945E2,1.5239493E4,2.7090634E2,3.65511E1,4.7519846E2,1.722094E2,9.8675366E2,6.934598E2,1.3299386E4,5.5841777E3,2.798656E0,1.2965242E2,4.0565334E1,9.512769E1],"tree_param":{"num_deleted":"0","num_feature":"131","num_nodes":"109","size_leaf_vector":"0"}},{"base_weights":[-4.537001E-1,-1.14073455E-1,-5.1696754E-1,-1.627654E-1,1.052951E0,-1.4209752E-1,-5.6159496E-1,6.4300174E-1,-2.333444E-1,-7.684495E-1,1.5710727E0,2.168021E0,-1.8566379E-1,-3.708518E-1,-6.2726724E-1,-1.21458545E-2,9.651628E-1,-2.540802E-1,2.0069408E0,-1.2477702E0,2.1326516E0,1.9541329E0,8.8669556E-1,1.7307254E0,2.7656894E0,1.0937928E0,-2.5677264E-1,8.868572E-1,-4.6523747E-1,-7.6054794E-1,-4.718873E-1,1.633022E0,-4.2340276E-1,1.7616677E0,8.1511664E-1,-1.272185E-1,-4.6372023E-1,2.3071582E0,1.6030998E0,1.9263276E0,-1.2764243E0,1.6046407E0,2.419033E0,1.7216073E0,2.3689747E0,-4.3217835E-1,1.6384604E0,1.5197878E0,2.2397661E0,1.6790099E0,3.0562642E0,-8.9799297E-1,2.107315E0,1.2541782E0,-3.1207982E-1,2.0228899E0,-9.919231E-1,1.7747775E0,-4.8229358E-1,-8.075333E-1,4.6987003E-1,-6.474533E-1,-2.981691E-1,1.7336237E0,-9.5888907E-1,-1.2167558E-1,-1.4493674E0,1.5418406E0,2.2019758E0,9.9276346E-1,-5.6611326E-2,-1.494906E-1,2.2285025E0,-4.8921916E-1,2.298687E0,2.1176233E0,2.6355379E0,1.8058989E0,1.2421607E0,-1.172332E0,-1.3466358E0,1.3563541E0,1.8546479E0,2.2226915E0,2.752911E0,-1.0479349E0,2.5954864E0,1.4888787E0,2.3825827E0,1.3600472E0,1.6968786E0,2.046301E0,2.7672248E0,1.7434398E0,9.113996E-1,1.7443458E0,3.2082958E0,1.5549655E0,-1.3149679E0,1.6069382E0,2.641117E0,2.1336408E0,9.8561186E-1,-3.5961473E-1,1.2783964E0,-9.61846E-1,2.233636E0,-1.3450713E0,1.339038E0,1.4846647E0,2.2055986E0,-3.1784388E-1,-6.7801744E-1,-8.251808E-1,1.3220788E0,-1.1929523E0,9.955614E-1,-1.0137886E0,-6.165085E-1,5.23233E-1,-3.7839648E-1],"categories":[],"categories_nodes":[],"categories_segments":[],"categories_sizes":[],"default_left":[1,1,1,1,1,1,1,1,1,1,1,1,1,1,1,1,1,1,1,1,1,1,1,1,1,1,1,1,1,1,1,1,1,1,1,1,1,1,1,0,1,0,0,1,1,1,1,1,1,1,1,1,1,1,1,1,1,1,1,1,1,1,1,0,0,0,0,0,0,0,0,0,0,0,0,0,0,0,0,0,0,0,0,0,0,0,0,0,0,0,0,0,0,0,0,0,0,0,0,0,0,0,0,0,0,0,0,0,0,0,0,0,0,0,0,0,0,0,0,0,0],"id":3,"left_children":[1,3,5,7,9,11,13,15,17,19,21,23,25,27,29,31,33,35,37,39,41,43,45,47,49,51,53,55,57,59,61,63,65,67,69,71,73,75,77,-1,79,-1,-1,81,83,85,87,89,91,93,95,97,99,101,103,105,107,109,111,113,115,117,119,-1,-1,-1,-1,-1,-1,-1,-1,-1,-1,-1,-1,-1,-1,-1,-1,-1,-1,-1,-1,-1,-1,-1,-1,-1,-1,-1,-1,-1,-1,-1,-1,-1,-1,-1,-1,-1,-1,-1,-1,-1,-1,-1,-1,-1,-1,-1,-1,-1,-1,-1,-1,-1,-1,-1,-1,-1,-1],"loss_changes":[5.148992E3,2.1385596E3,3.3793125E3,2.0545867E3,1.4237001E3,2.1633218E3,2.260957E3,6.141405E2,1.5435416E3,4.677964E2,3.0600122E2,9.920044E1,1.9194347E3,5.4889087E3,2.7804375E3,6.503107E2,2.3167932E2,8.7525977E2,3.3247925E1,2.8625153E1,3.3460083E0,6.843848E1,4.2018295E2,2.1553955E1,4.7423096E1,2.2443218E3,1.6704042E3,6.89137E3,1.6440078E3,4.178867E3,1.8908018E3,5.178412E1,2.3785187E2,2.6449463E1,2.545238E2,1.0762101E3,8.751035E2,5.156311E0,7.5082703E0,0E0,5.0949097E-1,0E0,0E0,2.1072021E1,8.897339E0,2.9055692E2,2.6470398E1,2.429016E0,1.0710754E0,2.5746918E-1,2.0353271E1,3.8592825E2,1.924768E2,1.6462097E2,1.4580417E3,1.2676553E3,1.0035856E3,3.737268E1,1.3736279E3,2.6175547E3,2.3256284E3,3.489375E2,2.0540552E3,0E0,0E0,0E0,0E0,0E0,0E0,0E0,0E0,0E0,0E0,0E0,0E0,0E0,0E0,0E0,0E0,0E0,0E0,0E0,0E0,0E0,0E0,0E0,0E0,0E0,0E0,0E0,0E0,0E0,0E0,0E0,0E0,0E0,0E0,0E0,0E0,0E0,0E0,0E0,0E0,0E0,0E0,0E0,0E0,0E0,0E0,0E0,0E0,0E0,0E0,0E0,0E0,0E0,0E0,0E0,0E0,0E0,0E0],"parents":[2147483647,0,0,1,1,2,2,3,3,4,4,5,5,6,6,7,7,8,8,9,9,10,10,11,11,12,12,13,13,14,14,15,15,16,16,17,17,18,18,19,19,20,20,21,21,22,22,23,23,24,24,25,25,26,26,27,27,28,28,29,29,30,30,31,31,32,32,33,33,34,34,35,35,36,36,37,37,38,38,40,40,43,43,44,44,45,45,46,46,47,47,48,48,49,49,50,50,51,51,52,52,53,53,54,54,55,55,56,56,57,57,58,58,59,59,60,60,61,61,62,62],"right_children":[2,4,6,8,10,12,14,16,18,20,22,24,26,28,30,32,34,36,38,40,42,44,46,48,50,52,54,56,58,60,62,64,66,68,70,72,74,76,78,-1,80,-1,-1,82,84,86,88,90,92,94,96,98,100,102,104,106,108,110,112,114,116,118,120,-1,-1,-1,-1,-1,-1,-1,-1,-1,-1,-1,-1,-1,-1,-1,-1,-1,-1,-1,-1,-1,-1,-1,-1,-1,-1,-1,-1,-1,-1,-1,-1,-1,-1,-1,-1,-1,-1,-1,-1,-1,-1,-1,-1,-1,-1,-1,-1,-1,-1,-1,-1,-1,-1,-1,-1,-1,-1],"split_conditions":[2.5E0,5.019591E-1,-2.844867E-2,2.847954E-1,-6.9832724E-1,-7.4969846E-1,-8.954307E-2,-2.041404E-1,7.7466273E-1,-7.9620063E-1,1.2951714E-1,4.5E0,1.5E0,1.5E0,3.5E0,-4.2762342E-1,-5.1893634E-1,2.7308315E-2,-2.1268663E-1,-6.742126E-2,-3.800965E-1,1.3425079E-1,7.294737E-1,6.352278E-1,-2.4860078E-1,-6.676306E-1,-6.803278E-1,5.9355366E-1,-1.433259E0,3.009256E-1,-2.521987E-1,2.7677053E-1,9.017597E-1,3.2543445E-1,2.918141E-1,2.1241788E-2,8.1422913E-1,2.0504886E-1,-5.7446635E-1,5.778983E-1,-3.3468354E-1,4.8139223E-1,7.257099E-1,6.116525E-1,2.4500278E-1,2.74572E-1,6.692864E-2,8.67022E-2,2.4007024E-1,8.7275326E-1,1.2439373E-1,-1.3924924E-1,-1.2540449E-1,-1.0763045E-1,1.0755931E0,-3.0947897E-1,2.7261508E-1,-1.5534946E-1,1.0767886E-1,3.173054E-1,-5.663281E-1,-5.8172506E-1,2.6599872E-1,5.200871E-1,-2.8766674E-1,-3.6502674E-2,-4.3481025E-1,4.625522E-1,6.605928E-1,2.9782906E-1,-1.69834E-2,-4.484718E-2,6.685508E-1,-1.4676575E-1,6.8960613E-1,6.3528705E-1,7.906614E-1,5.417697E-1,3.726482E-1,-3.5169962E-1,-4.0399078E-1,4.0690625E-1,5.563944E-1,6.668075E-1,8.258734E-1,-3.1438047E-1,7.7864593E-1,4.4666365E-1,7.1477485E-1,4.0801418E-1,5.090636E-1,6.138903E-1,8.301675E-1,5.2303195E-1,2.734199E-1,5.2330375E-1,9.624888E-1,4.6648967E-1,-3.944904E-1,4.820815E-1,7.9233515E-1,6.4009225E-1,2.9568356E-1,-1.0788442E-1,3.8351893E-1,-2.885538E-1,6.700908E-1,-4.0352142E-1,4.0171143E-1,4.4539943E-1,6.616796E-1,-9.535317E-2,-2.0340525E-1,-2.4755426E-1,3.9662367E-1,-3.578857E-1,2.9866844E-1,-3.0413657E-1,-1.8495256E-1,1.569699E-1,-1.13518946E-1],"split_indices":[129,60,71,25,45,33,78,30,56,80,18,129,128,128,128,36,8,87,46,66,125,41,60,57,103,16,101,83,42,85,0,25,105,56,44,30,21,95,8,0,64,0,0,10,125,71,3,5,127,105,92,77,107,42,25,38,104,78,1,119,101,15,25,0,0,0,0,0,0,0,0,0,0,0,0,0,0,0,0,0,0,0,0,0,0,0,0,0,0,0,0,0,0,0,0,0,0,0,0,0,0,0,0,0,0,0,0,0,0,0,0,0,0,0,0,0,0,0,0,0,0],"split_type":[0,0,0,0,0,0,0,0,0,0,0,0,0,0,0,0,0,0,0,0,0,0,0,0,0,0,0,0,0,0,0,0,0,0,0,0,0,0,0,0,0,0,0,0,0,0,0,0,0,0,0,0,0,0,0,0,0,0,0,0,0,0,0,0,0,0,0,0,0,0,0,0,0,0,0,0,0,0,0,0,0,0,0,0,0,0,0,0,0,0,0,0,0,0,0,0,0,0,0,0,0,0,0,0,0,0,0,0,0,0,0,0,0,0,0,0,0,0,0,0,0],"sum_hessian":[2.3963136E5,3.7630324E4,2.0200103E5,3.6123977E4,1.5063458E3,2.148995E4,1.8051108E5,2.9086936E3,3.3215285E4,3.334955E2,1.1728502E3,3.9687247E2,2.1093076E4,4.6233598E4,1.3427748E5,9.591421E2,1.9495515E3,3.2911547E4,3.037384E2,2.866972E2,4.679829E1,7.507721E2,4.2207816E2,2.3143463E2,1.6543785E2,1.109818E3,1.998326E4,3.2268423E3,4.3006758E4,7.227665E4,6.2000836E4,1.9122122E2,7.679209E2,3.0733798E2,1.6422135E3,2.050484E4,1.2406705E4,1.7151797E2,1.3222041E2,1.9724855E0,2.8472473E2,1.8778646E1,2.8019644E1,4.8440524E2,2.6636688E2,1.5339378E2,2.6868436E2,1.6644734E2,6.498729E1,3.6334366E1,1.2910349E2,3.7431796E2,7.355001E2,7.048766E2,1.9278383E4,2.0108657E3,1.2159767E3,3.242123E2,4.2682543E4,6.96185E4,2.6581438E3,3.083506E4,3.1165775E4,1.843953E2,6.825929E0,5.942699E2,1.7365097E2,2.079961E2,9.934189E1,1.3640907E3,2.781228E2,2.031372E4,1.9111899E2,1.2294046E4,1.1265958E2,1.1347241E2,5.8045563E1,8.209229E1,5.0128117E1,1.2181898E2,1.6290575E2,1.3232143E2,3.520838E2,1.9779459E2,6.85723E1,1.2801283E2,2.5380953E1,2.2621251E2,4.2471867E1,9.207405E1,7.437329E1,5.111756E1,1.3869725E1,3.2347958E1,3.9864075E0,1.4702822E1,1.1440066E2,5.398843E1,3.2032953E2,3.8170596E2,3.5379413E2,1.6327208E2,5.416045E2,1.8719678E4,5.5870526E2,1.3238412E2,1.8784816E3,1.056358E3,1.5961871E2,1.9640218E2,1.2781014E2,2.3195777E4,1.9486768E4,6.9046945E4,5.7156067E2,6.3819385E2,2.0199498E3,2.3993218E3,2.8435738E4,2.7726526E3,2.8393123E4],"tree_param":{"num_deleted":"0","num_feature":"131","num_nodes":"121","size_leaf_vector":"0"}},{"base_weights":[-3.474868E-1,-8.813583E-2,-4.0874726E-1,-1.1183888E-1,1.6876711E0,-4.8864993E-1,-2.4538536E-1,1.4624096E0,-1.3507678E-1,-3.31638E-1,1.9708861E0,-7.5019605E-2,-5.408855E-1,-3.830149E-1,3.325655E-2,-1.3574007E0,2.2849107E0,1.9443365E0,-1.5207824E-1,-1.5370191E0,1.4973989E0,1.6096371E0,2.9011726E0,1.8682841E0,-2.1260156E-1,-2.773016E-1,-6.0320836E-1,-5.410961E-1,-3.1983307E-1,5.705909E-1,-1.692254E-1,2.7420805E0,1.8851774E0,1.6428065E0,2.640574E0,-2.9955652E-1,9.3968816E-2,2.374729E0,1.3999765E0,1.8779815E0,3.132355E0,1.9375665E0,-1.0056078E0,1.5636727E0,-3.3349842E-1,1.6095495E-1,-6.016095E-1,-3.95304E-1,-6.841527E-1,-8.3889294E-1,-3.942666E-1,2.6050966E0,-3.4170583E-1,9.7590387E-1,8.831586E-3,-5.660926E-2,-4.6182054E-1,2.382575E0,3.0566387E0,2.1747527E0,1.5052422E0,2.0672069E0,1.5246569E0,1.910265E0,2.8995721E0,2.0811558E0,-3.1834158E-1,-2.074645E-2,1.0277809E0,2.5848207E0,1.3120009E0,1.3424653E0,1.7422694E0,1.296548E0,2.347699E0,2.858909E0,3.601677E0,1.8781251E0,3.0130532E0,1.7222822E0,-1.5144027E0,-1.5686209E0,1.5835005E0,2.0950608E0,-4.0253067E-1,2.1728673E0,-5.182678E-3,7.4740326E-1,-6.869925E-1,-5.520136E-1,1.2374081E-1,-8.302426E-1,-5.1363975E-1,-8.8830996E-1,9.00942E-1,-4.0178776E-1,3.1669533E0,3.4129362E0,1.5221112E0,3.5193517E0,-3.4578478E-1,1.136574E0,4.6699998E-1,2.63677E-1,-4.029438E-1,-3.3060256E-1,3.2410678E-2,-8.824604E-1,-3.4096614E-1],"categories":[],"categories_nodes":[],"categories_segments":[],"categories_sizes":[],"default_left":[1,1,1,1,1,1,1,1,1,1,1,1,1,1,1,0,1,1,1,0,0,1,1,1,1,1,1,1,1,1,1,1,1,1,1,1,1,1,1,1,1,1,1,1,1,1,1,1,1,1,1,1,1,1,1,1,1,0,0,0,0,0,0,0,0,0,0,0,0,0,0,0,0,0,0,0,0,0,0,0,0,0,0,0,0,0,0,0,0,0,0,0,0,0,0,0,0,0,0,0,0,0,0,0,0,0,0,0,0],"id":4,"left_children":[1,3,5,7,9,11,13,15,17,19,21,23,25,27,29,-1,31,33,35,-1,-1,37,39,41,43,45,47,49,51,53,55,57,59,61,63,65,67,69,71,73,75,77,79,81,83,85,87,89,91,93,95,97,99,101,103,105,107,-1,-1,-1,-1,-1,-1,-1,-1,-1,-1,-1,-1,-1,-1,-1,-1,-1,-1,-1,-1,-1,-1,-1,-1,-1,-1,-1,-1,-1,-1,-1,-1,-1,-1,-1,-1,-1,-1,-1,-1,-1,-1,-1,-1,-1,-1,-1,-1,-1,-1,-1,-1],"loss_changes":[3.5474844E3,1.7960425E3,2.3575195E3,1.540452E3,3.2208508E2,2.6206309E3,2.275217E3,1.4237882E3,1.4671763E3,1.5660382E2,1.6102832E2,3.6368523E3,1.7689238E3,3.964746E2,2.1343628E3,0E0,8.156152E1,6.631958E1,1.4934673E3,0E0,0E0,5.4004395E1,2.6444336E1,1.8102222E2,2.7283955E3,2.9273691E3,1.4654629E3,4.9545532E2,1.8162412E3,1.2224647E3,4.694674E2,1.7504883E1,2.4936035E1,8.757202E0,1.3388245E1,1.1514895E3,1.6523591E3,1.3451202E1,3.2312012E0,4.51696E0,3.8172607E0,5.050464E1,3.2906265E1,5.2769043E1,1.9948823E3,2.9280327E3,1.3639165E3,1.9855415E3,1.5611621E3,3.2265527E2,2.0473169E2,1.7917114E2,4.4480176E2,2.5448047E2,2.3635095E2,2.5098128E2,2.009967E2,0E0,0E0,0E0,0E0,0E0,0E0,0E0,0E0,0E0,0E0,0E0,0E0,0E0,0E0,0E0,0E0,0E0,0E0,0E0,0E0,0E0,0E0,0E0,0E0,0E0,0E0,0E0,0E0,0E0,0E0,0E0,0E0,0E0,0E0,0E0,0E0,0E0,0E0,0E0,0E0,0E0,0E0,0E0,0E0,0E0,0E0,0E0,0E0,0E0,0E0,0E0,0E0],"parents":[2147483647,0,0,1,1,2,2,3,3,4,4,5,5,6,6,7,7,8,8,9,9,10,10,11,11,12,12,13,13,14,14,16,16,17,17,18,18,21,21,22,22,23,23,24,24,25,25,26,26,27,27,28,28,29,29,30,30,31,31,32,32,33,33,34,34,35,35,36,36,37,37,38,38,39,39,40,40,41,41,42,42,43,43,44,44,45,45,46,46,47,47,48,48,49,49,50,50,51,51,52,52,53,53,54,54,55,55,56,56],"right_children":[2,4,6,8,10,12,14,16,18,20,22,24,26,28,30,-1,32,34,36,-1,-1,38,40,42,44,46,48,50,52,54,56,58,60,62,64,66,68,70,72,74,76,78,80,82,84,86,88,90,92,94,96,98,100,102,104,106,108,-1,-1,-1,-1,-1,-1,-1,-1,-1,-1,-1,-1,-1,-1,-1,-1,-1,-1,-1,-1,-1,-1,-1,-1,-1,-1,-1,-1,-1,-1,-1,-1,-1,-1,-1,-1,-1,-1,-1,-1,-1,-1,-1,-1,-1,-1,-1,-1,-1,-1,-1,-1],"split_conditions":[-4.281509E-2,3.9420766E-1,5.5E0,-2.7574736E-1,-6.64752E-1,-1.8359607E-1,-2.552079E-1,-1.0763857E0,-8.0925775E-1,-8.734591E-1,4.5E0,-7.53013E-1,-3.112436E-1,-4.5295574E-2,2.5710458E-1,-4.072202E-1,-1.7629948E-1,4.5E0,-5.507389E-1,-4.6110576E-1,4.4921967E-1,4.2738324E-1,-1.22390404E-1,7.334454E-1,1.5E0,4.2507924E-2,-3.2688364E-2,-2.54818E-1,-1.0124228E0,2.6240575E-1,2.3371992E-1,-4.176417E-2,-1.095887E-1,-5.2462167E-1,-4.6419537E-1,-1.6683467E-1,2.083111E-1,2.6940596E-1,-2.3319721E-1,3.1348103E-1,-4.2470568E-1,3.5E0,4.049888E-2,-6.200058E-1,-1.650928E-1,-7.3802516E-2,-4.0471888E-1,6.568754E-2,-1.3769205E-1,1.628556E-1,6.3198614E-1,3.8663006E-1,-1.4050043E0,2.3728289E-1,3.9494002E-1,-3.0541152E-1,-5.2652997E-1,7.147725E-1,9.1699165E-1,6.524258E-1,4.515727E-1,6.2016207E-1,4.5739707E-1,5.730795E-1,8.698717E-1,6.2434673E-1,-9.550248E-2,-6.2239356E-3,3.083343E-1,7.7544624E-1,3.9360029E-1,4.027396E-1,5.226808E-1,3.889644E-1,7.043097E-1,8.576727E-1,1.0805031E0,5.634375E-1,9.03916E-1,5.1668465E-1,-4.5432085E-1,-4.705863E-1,4.7505018E-1,6.285183E-1,-1.20759204E-1,6.5186024E-1,-1.5548035E-3,2.2422099E-1,-2.0609777E-1,-1.6560408E-1,3.7122242E-2,-2.4907278E-1,-1.5409192E-1,-2.66493E-1,2.7028263E-1,-1.20536335E-1,9.5008606E-1,1.023881E0,4.5663336E-1,1.0558056E0,-1.0373544E-1,3.4097221E-1,1.401E-1,7.9103105E-2,-1.20883144E-1,-9.918077E-2,9.723203E-3,-2.6473814E-1,-1.0228985E-1],"split_indices":[73,32,128,21,65,97,30,87,12,30,129,16,101,68,40,0,58,129,72,0,0,51,40,22,128,59,67,36,4,44,27,70,122,64,100,10,60,2,17,113,18,128,64,6,20,56,107,32,77,96,21,78,30,20,44,18,110,0,0,0,0,0,0,0,0,0,0,0,0,0,0,0,0,0,0,0,0,0,0,0,0,0,0,0,0,0,0,0,0,0,0,0,0,0,0,0,0,0,0,0,0,0,0,0,0,0,0,0,0],"split_type":[0,0,0,0,0,0,0,0,0,0,0,0,0,0,0,0,0,0,0,0,0,0,0,0,0,0,0,0,0,0,0,0,0,0,0,0,0,0,0,0,0,0,0,0,0,0,0,0,0,0,0,0,0,0,0,0,0,0,0,0,0,0,0,0,0,0,0,0,0,0,0,0,0,0,0,0,0,0,0,0,0,0,0,0,0,0,0,0,0,0,0,0,0,0,0,0,0,0,0,0,0,0,0,0,0,0,0,0,0],"sum_hessian":[2.2328261E5,4.266393E4,1.8061869E5,4.2102887E4,5.6104236E2,1.21291336E5,5.9327348E4,6.115506E2,4.1491336E4,6.898831E1,4.9205405E2,1.3600165E4,1.0769117E5,3.9712023E4,1.9615326E4,1.3795253E2,4.7359805E2,3.3556607E2,4.115577E4,4.167988E1,2.730843E1,3.5639066E2,1.356634E2,8.983706E2,1.2701795E4,2.0594727E4,8.709644E4,1.1337641E4,2.8374383E4,5.368064E3,1.4247262E4,2.1819337E2,2.554047E2,2.3650072E2,9.906536E1,2.5732021E4,1.5423749E4,7.443535E1,2.819553E2,2.668436E1,1.0897904E2,8.77541E2,2.0829554E1,8.086589E2,1.1893136E4,8.758861E3,1.1835866E4,2.4408766E4,6.2687676E4,3.7424856E3,7.5951553E3,2.0973335E2,2.8164648E4,3.117808E3,2.2502559E3,1.0288531E4,3.9587307E3,1.0582339E2,1.1236998E2,1.422568E2,1.1314789E2,4.790973E1,1.8859099E2,2.812777E1,7.093759E1,2.0058994E2,2.5531432E4,1.3737168E4,1.686581E3,6.0953197E1,1.3482149E1,2.4561046E2,3.6344845E1,1.3604491E1,1.3079869E1,7.3339836E1,3.563921E1,8.341826E2,4.3358414E1,2.899412E0,1.7930141E1,4.5953593E0,8.0406354E2,3.2790952E2,1.1565227E4,6.671884E2,8.0916724E3,7.040735E2,1.1131793E4,1.8748246E4,5.660519E3,3.3759656E4,2.892802E4,3.6395986E3,1.0288702E2,7.5800337E3,1.5121569E1,1.1889423E2,9.083913E1,2.8813349E1,2.8135836E4,2.3687256E3,7.490826E2,1.3902178E3,8.6003815E2,2.52234E3,7.7661914E3,8.821301E2,3.0766006E3],"tree_param":{"num_deleted":"0","num_feature":"131","num_nodes":"109","size_leaf_vector":"0"}},{"base_weights":[-2.6412213E-1,-8.4012076E-2,-3.363432E-1,2.1612663E0,-1.0388259E-1,-4.288553E-1,-2.1752195E-1,1.4229866E0,3.072386E0,2.1801245E0,-1.1612866E-1,-6.115472E-1,-2.6393852E-1,-2.2800508E-1,2.4768026E0,1.7773854E0,1.1753978E-1,3.481595E0,1.8937519E0,1.8215673E0,2.7946665E0,7.968336E-2,-2.4396718E-1,-6.597787E-1,2.2888355E-1,-1.6742967E-1,-5.5084777E-1,1.1334154E-2,-3.2675475E-1,3.950959E0,1.8325808E0,1.5504464E0,2.574172E0,1.5570883E0,-1.3142778E0,3.0337362E0,4.309614E0,1.4894707E0,2.6843848E0,2.062205E0,1.4343889E0,3.7684817E0,2.4061885E0,1.8775992E0,4.8361393E-3,-4.0030813E-1,-3.4156363E-2,-5.1134056E-1,-8.979576E-1,1.9693899E0,-1.7416166E-1,-2.1681331E-1,1.9368756E0,-9.493929E-1,-2.2716382E-1,2.3669348E0,-1.1790239E-1,-3.3657017E-1,2.6960309E0,2.3300357E0,4.343919E0,1.4096204E0,2.457007E0,2.6198895E0,1.4625504E0,2.728969E0,1.6145469E0,1.1757559E0,1.7571559E0,2.1423006E0,3.301386E0,4.63761E0,2.8518639E0,1.7323623E0,1.2191917E0,2.1699083E0,3.671164E0,1.7231249E0,2.6667264E0,1.7047254E0,1.167132E0,2.0375102E0,4.179085E0,1.7437257E0,2.614361E0,1.5324758E0,2.8898354E0,1.7595856E0,-3.4731537E-2,-8.085284E-1,-3.0357733E-1,8.4173596E-1,-1.4445944E-1,5.321648E-1,-5.7520443E-1,2.889089E0,-9.272381E-1,2.511356E0,1.6129392E0,-4.7486567E-1,1.1659704E0,3.5390515E0,-2.2589582E-1,-4.0013486E-1,3.3643537E0,2.9595466E0,-1.0321078E0,4.1795597E0,-2.6244542E-1,2.7672725E0,1.3663203E0,2.8403697E0,-1.4495149E-1,2.4049718E0,-3.4506056E-1,2.1014981E0,3.097531E0,2.5467257E0,1.3039578E0,4.4633665E0,1.9018484E0,1.1545414E0,1.5150313E0,3.636376E0,1.8361158E0],"categories":[],"categories_nodes":[],"categories_segments":[],"categories_sizes":[],"default_left":[1,1,1,1,1,1,1,1,1,1,1,1,1,1,1,1,1,1,1,1,1,1,1,1,1,1,1,1,1,1,1,1,1,1,0,1,1,1,1,1,1,1,1,1,1,1,1,1,1,1,1,1,1,1,1,1,1,1,1,1,1,1,1,0,0,0,0,0,0,0,0,0,0,0,0,0,0,0,0,0,0,0,0,0,0,0,0,0,0,0,0,0,0,0,0,0,0,0,0,0,0,0,0,0,0,0,0,0,0,0,0,0,0,0,0,0,0,0,0,0,0,0,0,0,0],"id":5,"left_children":[1,3,5,7,9,11,13,15,17,19,21,23,25,27,29,31,33,35,37,39,41,43,45,47,49,51,53,55,57,59,61,63,65,67,-1,69,71,73,75,77,79,81,83,85,87,89,91,93,95,97,99,101,103,105,107,109,111,113,115,117,119,121,123,-1,-1,-1,-1,-1,-1,-1,-1,-1,-1,-1,-1,-1,-1,-1,-1,-1,-1,-1,-1,-1,-1,-1,-1,-1,-1,-1,-1,-1,-1,-1,-1,-1,-1,-1,-1,-1,-1,-1,-1,-1,-1,-1,-1,-1,-1,-1,-1,-1,-1,-1,-1,-1,-1,-1,-1,-1,-1,-1,-1,-1,-1],"loss_changes":[2.7270088E3,2.6773657E3,1.6448398E3,3.4973804E2,1.663921E3,2.5347354E3,1.8508567E3,1.351903E2,1.0663867E2,6.481763E1,1.4810298E3,1.6181416E3,1.2243372E3,1.5423037E3,2.3395935E2,3.7616577E1,1.330498E2,5.110791E1,1.604181E1,1.5977173E1,3.444867E1,3.1448525E3,1.1741365E3,1.334166E3,1.520594E3,3.4392031E3,1.4355989E3,5.8030166E3,1.3715327E3,3.852478E1,4.3707886E1,1.3239441E1,2.946228E0,3.868866E-1,0E0,2.0532593E1,1.4685303E1,7.5875854E-1,2.1700745E0,2.062793E1,3.8757477E0,1.3543701E1,7.1624146E0,3.2186182E2,1.5578839E3,8.096843E2,1.4768617E3,1.5502852E3,1.6096719E3,7.468359E1,7.100353E2,1.1037782E3,2.5329797E3,1.6157827E3,9.562196E2,3.933623E2,1.4463956E3,1.0726562E3,2.9208008E1,4.7214508E-1,9.104736E0,1.1769714E0,4.5152405E1,0E0,0E0,0E0,0E0,0E0,0E0,0E0,0E0,0E0,0E0,0E0,0E0,0E0,0E0,0E0,0E0,0E0,0E0,0E0,0E0,0E0,0E0,0E0,0E0,0E0,0E0,0E0,0E0,0E0,0E0,0E0,0E0,0E0,0E0,0E0,0E0,0E0,0E0,0E0,0E0,0E0,0E0,0E0,0E0,0E0,0E0,0E0,0E0,0E0,0E0,0E0,0E0,0E0,0E0,0E0,0E0,0E0,0E0,0E0,0E0,0E0,0E0],"parents":[2147483647,0,0,1,1,2,2,3,3,4,4,5,5,6,6,7,7,8,8,9,9,10,10,11,11,12,12,13,13,14,14,15,15,16,16,17,17,18,18,19,19,20,20,21,21,22,22,23,23,24,24,25,25,26,26,27,27,28,28,29,29,30,30,31,31,32,32,33,33,35,35,36,36,37,37,38,38,39,39,40,40,41,41,42,42,43,43,44,44,45,45,46,46,47,47,48,48,49,49,50,50,51,51,52,52,53,53,54,54,55,55,56,56,57,57,58,58,59,59,60,60,61,61,62,62],"right_children":[2,4,6,8,10,12,14,16,18,20,22,24,26,28,30,32,34,36,38,40,42,44,46,48,50,52,54,56,58,60,62,64,66,68,-1,70,72,74,76,78,80,82,84,86,88,90,92,94,96,98,100,102,104,106,108,110,112,114,116,118,120,122,124,-1,-1,-1,-1,-1,-1,-1,-1,-1,-1,-1,-1,-1,-1,-1,-1,-1,-1,-1,-1,-1,-1,-1,-1,-1,-1,-1,-1,-1,-1,-1,-1,-1,-1,-1,-1,-1,-1,-1,-1,-1,-1,-1,-1,-1,-1,-1,-1,-1,-1,-1,-1,-1,-1,-1,-1,-1,-1,-1,-1,-1,-1],"split_conditions":[1.6424495E-1,-3.0659038E-1,1.4266047E-1,4.5E0,-4.5161754E-1,1.603899E-1,1.4167027E0,8.362885E-1,3.019076E-1,-2.2992626E-1,1.3886659E-1,2.9343015E-1,1.2362876E-1,4.246711E-1,2.4306719E-1,-5.7009834E-1,-4.627911E-1,1.2864384E-1,-2.0584783E-1,6.906415E-1,2.3711105E-1,1.5E0,3.0698907E-1,1.798248E-2,2.5E0,1.1197796E0,2.5E0,1.5E0,7.9762673E-1,-1.8473199E-1,4.5E0,-9.935528E-2,1.0208929E0,-8.3647245E-1,-3.9428335E-1,-5.7231265E-1,1.8791342E-1,4.3566668E-1,1.2936088E-1,3.5E0,3.1242606E-1,-2.2850466E-1,-1.3747099E-1,1.2833726E-1,-7.05297E-1,9.248778E-2,-2.8957832E-1,1.18324056E-1,-5.005917E-1,4.0102497E-1,2.7709642E-2,-6.9832724E-1,2.591363E-1,4.099947E-2,-1.2253292E0,2.8896117E-1,-4.6444833E-1,-9.182702E-1,-6.8556505E-1,9.873524E-2,2.1747E-1,-3.2156533E-1,3.0017292E-1,7.859669E-1,4.3876514E-1,8.186908E-1,4.843641E-1,3.5272676E-1,5.271468E-1,6.426902E-1,9.904159E-1,1.391283E0,8.555592E-1,5.197087E-1,3.6575752E-1,6.509725E-1,1.1013492E0,5.169375E-1,8.0001795E-1,5.114176E-1,3.5013962E-1,6.112531E-1,1.2537255E0,5.231177E-1,7.843084E-1,4.5974275E-1,8.6695063E-1,5.278757E-1,-1.0419462E-2,-2.4255854E-1,-9.10732E-2,2.525208E-1,-4.3337833E-2,1.5964945E-1,-1.7256133E-1,8.6672676E-1,-2.7817145E-1,7.534069E-1,4.838818E-1,-1.424597E-1,3.4979114E-1,1.0617155E0,-6.776875E-2,-1.2004046E-1,1.0093062E0,8.87864E-1,-3.0963236E-1,1.253868E0,-7.873363E-2,8.301818E-1,4.098961E-1,8.521109E-1,-4.3485448E-2,7.214916E-1,-1.0351817E-1,6.304495E-1,9.2925936E-1,7.6401776E-1,3.9118737E-1,1.33901E0,5.7055455E-1,3.463624E-1,4.545094E-1,1.0909128E0,5.508348E-1],"split_indices":[92,44,85,129,7,28,10,84,12,107,53,71,85,25,85,8,8,92,96,4,121,128,112,95,128,25,128,128,35,97,129,27,104,8,0,14,85,90,92,129,112,75,97,92,59,105,31,83,56,92,11,45,21,73,8,85,15,3,72,87,90,125,85,0,0,0,0,0,0,0,0,0,0,0,0,0,0,0,0,0,0,0,0,0,0,0,0,0,0,0,0,0,0,0,0,0,0,0,0,0,0,0,0,0,0,0,0,0,0,0,0,0,0,0,0,0,0,0,0,0,0,0,0,0,0],"split_type":[0,0,0,0,0,0,0,0,0,0,0,0,0,0,0,0,0,0,0,0,0,0,0,0,0,0,0,0,0,0,0,0,0,0,0,0,0,0,0,0,0,0,0,0,0,0,0,0,0,0,0,0,0,0,0,0,0,0,0,0,0,0,0,0,0,0,0,0,0,0,0,0,0,0,0,0,0,0,0,0,0,0,0,0,0,0,0,0,0,0,0,0,0,0,0,0,0,0,0,0,0,0,0,0,0,0,0,0,0,0,0,0,0,0,0,0,0,0,0,0,0,0,0,0,0],"sum_hessian":[2.0964634E5,6.0004633E4,1.496417E5,5.254318E2,5.94792E4,8.413393E4,6.550778E4,2.9166095E2,2.3377089E2,3.1626242E2,5.9162938E4,3.991457E4,4.4219355E4,6.52548E4,2.529792E2,2.2910321E2,6.255774E1,1.7207454E2,6.169634E1,2.022329E2,1.14029526E2,2.3368879E4,3.579406E4,3.7748434E4,2.1661348E3,3.3090242E4,1.1129116E4,1.9060012E4,4.6194793E4,7.5372734E1,1.7760646E2,1.8060857E2,4.8494637E1,3.1151026E1,3.1406713E1,1.1469968E2,5.7374866E1,4.2730484E1,1.8965855E1,1.2205037E2,8.0182526E1,3.0036087E1,8.399344E1,9.330027E2,2.2435877E4,2.0510049E4,1.528401E4,2.3257201E4,1.4491234E4,4.065607E2,1.759574E3,3.2332365E4,7.5787585E2,4.9869087E3,6.1422075E3,9.904119E2,1.80696E4,4.604616E4,1.4862991E2,1.6059246E1,5.9313488E1,1.0782663E2,6.977983E1,1.1528823E1,1.6907974E2,4.017089E1,8.323744E0,1.3085891E1,1.8065136E1,2.8565027E1,8.613465E1,4.5055885E1,1.2318982E1,1.9656378E1,2.3074108E1,1.4569003E1,4.3968506E0,8.0658714E1,4.1391647E1,3.7187706E1,4.299482E1,6.901938E0,2.3134148E1,2.2325094E1,6.1668343E1,6.976513E2,2.3535133E2,4.937898E2,2.1942088E4,3.9275913E3,1.6582457E4,1.7087303E3,1.3575279E4,1.340859E3,2.1916342E4,1.1043347E2,1.4380801E4,1.5890614E2,2.4765457E2,1.4376371E3,3.2193692E2,7.706066E1,3.2255305E4,2.8765622E2,4.702196E2,1.0261782E2,4.884291E3,4.7852844E1,6.0943545E3,7.061297E2,2.8428223E2,1.6278084E2,1.7906818E4,1.4129015E2,4.590487E4,6.242561E1,8.620431E1,1.2035545E1,4.0237E0,5.5758503E1,3.5549831E0,3.502472E1,7.280191E1,2.2391315E1,4.7388515E1],"tree_param":{"num_deleted":"0","num_feature":"131","num_nodes":"125","size_leaf_vector":"0"}},{"base_weights":[-1.9938561E-1,-2.5989902E-1,-4.8545554E-2,-4.233602E-2,-3.2043713E-1,1.7535995E0,-6.524446E-2,1.4735447E0,-7.565776E-2,-2.3187838E-1,-5.019009E-1,2.3148565E0,1.4468974E0,-1.04105584E-1,7.076714E-1,2.1130824E0,-3.1264567E-1,-1.0884966E-1,1.3006866E0,-3.7699854E-1,-1.11056246E-1,-6.772832E-1,-2.4627411E-1,1.6287067E0,2.8441663E0,1.2739366E0,1.6478223E0,-1.15527265E-1,2.2502284E0,1.8307674E0,1.6640352E-2,1.6299642E0,2.7943416E0,2.1317353E0,-8.4147567E-1,-4.9807525E-1,1.9007256E-2,-6.397534E-1,2.159816E0,-8.409799E-2,-4.7379586E-1,4.9775098E-2,-4.8485908E-1,1.732081E-1,-7.4207133E-1,-8.2858235E-1,-8.426315E-2,1.1922615E0,1.7419785E0,3.3852215E0,1.4844034E0,2.1816697E0,1.4366188E0,4.9858946E-2,-2.5143355E-1,2.8936563E0,1.8805326E0,1.4614904E0,2.505049E0,1.8266126E0,-4.3946925E-1,2.9305227E0,1.4717236E0,2.4253747E0,3.2318377E0,2.8692005E0,1.2538481E0,2.2374682E0,-1.1540225E0,5.4509664E-1,-6.540653E-1,1.6411593E0,-2.6222637E-2,-1.0651537E0,2.402945E0,-4.2214286E-1,2.2182841E0,-2.0120253E-1,2.3139734E0,-3.7600678E-1,-8.530773E-1,-9.714285E-2,1.9620926E0,4.6897683E-2,-8.511218E-1,1.9048582E0,-3.760088E-1,5.237475E-1,-7.7785707E-1,1.4970969E0,-9.303615E-1,3.111035E0,-1.8473554E-1,1.3360606E0,1.915016E0,1.9057198E0,3.6429372E0,1.2999958E0,2.4139822E0,1.6928955E0,1.3414763E0,1.815094E0,6.5923394E-3,-4.813632E-2,-4.5650378E-1,3.3274267E0,1.7725246E0,1.5053811E0,2.0580263E0,1.6079464E0,-3.412713E-1,2.8826053E0,1.8439958E0,2.0014782E0,-7.882039E-1,1.9000754E0,-7.171913E-1],"categories":[],"categories_nodes":[],"categories_segments":[],"categories_sizes":[],"default_left":[1,1,1,1,1,1,1,1,1,1,1,1,1,1,1,1,1,1,1,1,1,1,1,1,1,0,1,1,1,1,1,1,1,1,1,1,1,1,1,1,1,1,1,1,1,1,1,0,1,1,0,1,1,1,1,1,1,1,1,1,1,0,0,0,0,0,0,0,0,0,0,0,0,0,0,0,0,0,0,0,0,0,0,0,0,0,0,0,0,0,0,0,0,0,0,0,0,0,0,0,0,0,0,0,0,0,0,0,0,0,0,0,0,0,0,0,0],"id":6,"left_children":[1,3,5,7,9,11,13,15,17,19,21,23,25,27,29,31,33,35,37,39,41,43,45,47,49,-1,51,53,55,57,59,61,63,65,67,69,71,73,75,77,79,81,83,85,87,89,91,-1,93,95,-1,97,99,101,103,105,107,109,111,113,115,-1,-1,-1,-1,-1,-1,-1,-1,-1,-1,-1,-1,-1,-1,-1,-1,-1,-1,-1,-1,-1,-1,-1,-1,-1,-1,-1,-1,-1,-1,-1,-1,-1,-1,-1,-1,-1,-1,-1,-1,-1,-1,-1,-1,-1,-1,-1,-1,-1,-1,-1,-1,-1,-1,-1,-1],"loss_changes":[1.8173926E3,1.8715488E3,1.7157017E3,1.5626305E3,1.7863438E3,8.675293E1,1.6966934E3,7.6077295E2,1.3829509E3,1.309885E3,1.634335E3,6.1936707E1,9.7560425E0,1.4464907E3,2.098671E3,1.5675098E2,2.296937E2,1.4709432E3,1.1897877E3,9.622588E2,2.451014E3,1.1915547E3,1.3996328E3,1.984848E0,7.011389E1,0E0,1.4274841E1,1.203064E3,5.6335327E1,2.5282007E2,1.3836946E3,5.5194336E1,2.4760742E1,1.6887253E1,1.4275435E2,1.189644E3,1.6325123E3,2.8671686E2,7.556152E1,2.3683481E3,9.458447E2,8.008904E3,2.3886829E3,1.4571053E3,9.105381E2,7.6578687E2,3.7273398E3,0E0,1.8708191E0,2.0617188E1,0E0,5.431946E0,4.980011E-1,1.8440137E3,1.2248561E3,3.928656E1,8.074707E0,1.7690686E2,8.530859E1,1.5583142E2,8.712172E2,0E0,0E0,0E0,0E0,0E0,0E0,0E0,0E0,0E0,0E0,0E0,0E0,0E0,0E0,0E0,0E0,0E0,0E0,0E0,0E0,0E0,0E0,0E0,0E0,0E0,0E0,0E0,0E0,0E0,0E0,0E0,0E0,0E0,0E0,0E0,0E0,0E0,0E0,0E0,0E0,0E0,0E0,0E0,0E0,0E0,0E0,0E0,0E0,0E0,0E0,0E0,0E0,0E0,0E0,0E0,0E0],"parents":[2147483647,0,0,1,1,2,2,3,3,4,4,5,5,6,6,7,7,8,8,9,9,10,10,11,11,12,12,13,13,14,14,15,15,16,16,17,17,18,18,19,19,20,20,21,21,22,22,23,23,24,24,26,26,27,27,28,28,29,29,30,30,31,31,32,32,33,33,34,34,35,35,36,36,37,37,38,38,39,39,40,40,41,41,42,42,43,43,44,44,45,45,46,46,48,48,49,49,51,51,52,52,53,53,54,54,55,55,56,56,57,57,58,58,59,59,60,60],"right_children":[2,4,6,8,10,12,14,16,18,20,22,24,26,28,30,32,34,36,38,40,42,44,46,48,50,-1,52,54,56,58,60,62,64,66,68,70,72,74,76,78,80,82,84,86,88,90,92,-1,94,96,-1,98,100,102,104,106,108,110,112,114,116,-1,-1,-1,-1,-1,-1,-1,-1,-1,-1,-1,-1,-1,-1,-1,-1,-1,-1,-1,-1,-1,-1,-1,-1,-1,-1,-1,-1,-1,-1,-1,-1,-1,-1,-1,-1,-1,-1,-1,-1,-1,-1,-1,-1,-1,-1,-1,-1,-1,-1,-1,-1,-1,-1,-1,-1],"split_conditions":[1.2337294E-1,-2.5212252E-1,-7.7725285E-1,-8.105864E-1,2.8973967E-2,2.0468485E-1,4.872464E-1,7.4794537E-1,6.369704E-1,-1.9858536E-1,-2.79251E-2,-8.273757E-2,-1.1394271E-1,1.0580642E0,4.7814664E-1,4.5E0,1.770576E-1,-5.121651E-1,-3.0443448E-1,-3.8829422E-1,4.300502E-2,-5.3349E-1,-6.97851E-2,4.5E0,1.282176E-1,3.8218102E-1,2.4585202E-1,-1.820533E-2,2.6249617E-1,4.5E0,-1.4586097E-1,2.2050285E-1,-2.0999464E-1,1.010091E-1,1.6480656E-1,-1.9955193E-4,-3.070382E-1,-1.9620895E-1,-9.425928E-1,4.090581E-1,-7.994724E-3,-6.114305E-2,5.529021E-1,1.0618119E-1,1.2047625E-1,-1.8184698E-1,-7.965944E-1,3.5767844E-1,-3.0681127E-1,-2.9359538E-2,4.4532102E-1,1.2738705E-1,3.4995636E-1,1.5E0,1.4753422E-1,2.4388939E-1,2.5E0,8.416419E-1,2.4690238E-1,5.448849E-1,-2.4839774E-1,8.791568E-1,4.4151708E-1,7.2761244E-1,9.695514E-1,8.6076015E-1,3.7615445E-1,6.712405E-1,-3.4620675E-1,1.63529E-1,-1.9621961E-1,4.923478E-1,-7.866791E-3,-3.1954613E-1,7.2088355E-1,-1.2664287E-1,6.6548526E-1,-6.036076E-2,6.9419205E-1,-1.12802036E-1,-2.559232E-1,-2.9142857E-2,5.886278E-1,1.4069306E-2,-2.5533655E-1,5.714575E-1,-1.1280265E-1,1.5712425E-1,-2.3335713E-1,4.4912907E-1,-2.7910846E-1,9.3331057E-1,-5.5420663E-2,4.008182E-1,5.7450485E-1,5.7171595E-1,1.0928812E0,3.8999876E-1,7.2419465E-1,5.078687E-1,4.024429E-1,5.4452825E-1,1.977702E-3,-1.4440897E-2,-1.3695113E-1,9.98228E-1,5.317574E-1,4.5161435E-1,6.174079E-1,4.8238394E-1,-1.023814E-1,8.647816E-1,5.5319875E-1,6.004435E-1,-2.3646118E-1,5.7002264E-1,-2.1515739E-1],"split_indices":[90,82,14,16,11,90,60,57,1,11,95,78,78,56,44,129,91,0,63,69,123,64,118,129,95,0,90,70,90,129,103,38,9,64,85,83,27,100,110,14,78,30,40,7,112,82,14,0,88,71,0,92,10,128,7,115,129,38,90,1,11,0,0,0,0,0,0,0,0,0,0,0,0,0,0,0,0,0,0,0,0,0,0,0,0,0,0,0,0,0,0,0,0,0,0,0,0,0,0,0,0,0,0,0,0,0,0,0,0,0,0,0,0,0,0,0,0],"split_type":[0,0,0,0,0,0,0,0,0,0,0,0,0,0,0,0,0,0,0,0,0,0,0,0,0,0,0,0,0,0,0,0,0,0,0,0,0,0,0,0,0,0,0,0,0,0,0,0,0,0,0,0,0,0,0,0,0,0,0,0,0,0,0,0,0,0,0,0,0,0,0,0,0,0,0,0,0,0,0,0,0,0,0,0,0,0,0,0,0,0,0,0,0,0,0,0,0,0,0,0,0,0,0,0,0,0,0,0,0,0,0,0,0,0,0,0,0],"sum_hessian":[1.9910467E5,1.4209775E5,5.700692E4,3.0932754E4,1.11165E5,5.224285E2,5.6484492E4,6.644018E2,3.0268352E4,7.470797E4,3.645703E4,1.8229173E2,3.401368E2,5.378131E4,2.7031836E3,4.8909903E2,1.7530276E2,2.9556488E4,7.1186285E2,3.394014E4,4.0767824E4,2.1621291E4,1.4835741E4,8.116008E1,1.0113165E2,1.867331E2,1.5340373E2,5.3522605E4,2.587056E2,1.0290592E3,1.6741245E3,2.881493E2,2.0094974E2,3.06411E1,1.4466167E2,7.307598E3,2.224889E4,2.1853421E2,4.9332864E2,8.430879E3,2.5509264E4,2.8504447E4,1.2263376E4,1.5303462E3,2.0090945E4,3.2283008E3,1.160744E4,1.909834E1,6.2061737E1,7.1279625E1,2.9852028E1,4.0841408E1,1.1256232E2,2.414313E4,2.9379473E4,9.191219E1,1.6679341E2,6.669596E2,3.6209955E2,3.3635754E2,1.337767E3,2.9356106E1,2.5879318E2,1.1256264E2,8.838711E1,1.54196205E1,1.5221478E1,1.276389E1,1.3189777E2,9.502666E2,6.3573315E3,6.025728E2,2.1646318E4,1.922988E2,2.6235407E1,1.078626E1,4.825424E2,8.0392173E3,3.9166138E2,2.0282002E4,5.227261E3,2.6471654E4,2.0327932E3,5.002048E3,7.2613276E3,3.6790237E2,1.1624438E3,5.51997E2,1.9538947E4,1.3478232E2,3.0935186E3,3.5294223E2,1.1254498E4,2.1155523E1,4.0906216E1,1.1819662E1,5.9459965E1,9.892648E0,3.0948761E1,2.5928322E1,8.6633995E1,5.7662067E2,2.356651E4,1.4754136E4,1.4625338E4,6.485255E1,2.7059645E1,5.661438E1,1.1017904E2,6.16947E2,5.0012566E1,2.2832979E2,1.3376976E2,3.1549353E2,2.0864025E1,1.4133255E2,1.1964344E3],"tree_param":{"num_deleted":"0","num_feature":"131","num_nodes":"117","size_leaf_vector":"0"}},{"base_weights":[-1.50846E-1,-2.1025701E-1,-3.4103964E-2,-1.243354E-1,-3.6600077E-1,-5.1568057E-2,1.2050954E0,-5.032516E-2,-3.422963E-1,7.663121E-2,-4.1095003E-1,3.949826E-2,-2.5120762E-1,5.126362E-2,1.9491974E0,3.9538506E-2,-3.1574768E-1,-4.8430145E-1,1.9817038E-1,1.7661659E0,-1.3507736E-1,1.0096011E0,-4.2628837E-1,6.5423787E-1,-1.4168779E-2,-2.8718394E-1,1.8884546E0,1.5110608E0,-9.275736E-1,1.8509296E0,3.015905E0,1.9590895E-1,-1.8834718E-1,-4.328322E-1,2.4986565E-1,-8.089767E-1,-2.0622173E-1,8.626207E-2,3.16657E0,-1.1909598E0,2.096695E0,2.3948624E0,-2.0078464E-1,2.6081855E0,4.4429088E-1,-4.6028078E-1,9.997798E-2,1.246941E0,-5.993493E-2,-4.606674E-2,7.2731006E-1,-3.732209E-1,2.3018184E-1,1.5663234E0,2.7677135E0,2.5280876E0,1.4097985E0,-1.0831141E0,2.2089193E0,1.9818912E0,1.35082E0,2.2856061E0,3.8972604E0,1.2271075E0,9.880937E-3,5.1263634E-2,-6.246731E-1,-5.0564784E-1,5.9408283E-1,-3.4931537E-2,2.044167E0,1.2094547E0,-9.326363E-1,-8.8479765E-2,-6.432278E-1,-2.9386556E-2,1.3546687E0,1.7496014E0,3.7092936E0,2.550729E0,1.6937886E0,1.6732086E0,2.8639522E0,2.0419607E0,-2.7822956E-1,1.8365536E0,2.9663587E0,-6.511707E-2,1.8637483E0,-6.5300924E-1,-3.618947E-1,9.6334887E-1,-2.609243E-1,2.0975378E0,6.00778E-1,2.1833696E0,-4.0604734E-1,-6.327622E-2,1.3277285E0,-6.3192976E-1,1.7373347E0,-3.150141E-1,-1.0992758E0,4.3850202E-2,1.8378876E0,1.4203951E0,1.9707891E0,2.2238264E0,3.6439595E0,1.6678191E0,1.2887663E0,-1.1134517E0,1.7284645E0,2.2084334E0,1.702885E0,1.2743293E0,2.9294064E0,2.248797E0,4.259598E0],"categories":[],"categories_nodes":[],"categories_segments":[],"categories_sizes":[],"default_left":[1,1,1,1,1,1,1,1,1,1,1,1,1,1,1,1,1,1,1,1,1,1,1,1,1,1,1,1,1,1,1,1,1,1,1,1,1,1,1,0,1,1,1,1,1,1,1,1,1,1,1,1,1,1,1,0,1,1,0,1,0,1,1,0,0,0,0,0,0,0,0,0,0,0,0,0,0,0,0,0,0,0,0,0,0,0,0,0,0,0,0,0,0,0,0,0,0,0,0,0,0,0,0,0,0,0,0,0,0,0,0,0,0,0,0,0,0,0,0],"id":7,"left_children":[1,3,5,7,9,11,13,15,17,19,21,23,25,27,29,31,33,35,37,39,41,43,45,47,49,51,53,55,57,59,61,63,65,67,69,71,73,75,77,-1,79,81,83,85,87,89,91,93,95,97,99,101,103,105,107,-1,109,111,-1,113,-1,115,117,-1,-1,-1,-1,-1,-1,-1,-1,-1,-1,-1,-1,-1,-1,-1,-1,-1,-1,-1,-1,-1,-1,-1,-1,-1,-1,-1,-1,-1,-1,-1,-1,-1,-1,-1,-1,-1,-1,-1,-1,-1,-1,-1,-1,-1,-1,-1,-1,-1,-1,-1,-1,-1,-1,-1,-1],"loss_changes":[1.3148491E3,1.68121E3,1.3838076E3,1.3061403E3,8.8876025E2,1.1463203E3,7.628412E2,1.4417761E3,1.5753345E3,1.4734792E3,8.8399023E2,1.4285679E3,1.5209735E3,5.006871E2,5.1043457E1,1.6092438E3,1.0126201E3,1.467352E3,1.4186195E3,4.5084546E2,6.090803E2,3.9056332E2,7.17728E2,1.4717405E3,9.419709E2,8.6478564E2,8.82113E1,1.0919128E1,1.0473691E2,2.9888428E1,1.9399048E1,5.137644E3,1.9213689E3,9.475051E2,1.3403284E3,1.8727407E3,4.5050974E2,6.0398914E2,1.1282483E2,0E0,7.1222534E1,2.6607544E1,6.2051935E2,2.5792908E1,2.3254205E2,7.1433105E2,7.589534E2,1.0430127E3,1.2258969E3,9.0283606E2,2.2562505E3,7.0357837E2,8.2986664E2,1.1451111E1,3.3028687E1,0E0,1.9152832E0,1.903035E1,0E0,2.1009888E1,0E0,1.349939E1,1.4770203E0,0E0,0E0,0E0,0E0,0E0,0E0,0E0,0E0,0E0,0E0,0E0,0E0,0E0,0E0,0E0,0E0,0E0,0E0,0E0,0E0,0E0,0E0,0E0,0E0,0E0,0E0,0E0,0E0,0E0,0E0,0E0,0E0,0E0,0E0,0E0,0E0,0E0,0E0,0E0,0E0,0E0,0E0,0E0,0E0,0E0,0E0,0E0,0E0,0E0,0E0,0E0,0E0,0E0,0E0,0E0,0E0],"parents":[2147483647,0,0,1,1,2,2,3,3,4,4,5,5,6,6,7,7,8,8,9,9,10,10,11,11,12,12,13,13,14,14,15,15,16,16,17,17,18,18,19,19,20,20,21,21,22,22,23,23,24,24,25,25,26,26,27,27,28,28,29,29,30,30,31,31,32,32,33,33,34,34,35,35,36,36,37,37,38,38,40,40,41,41,42,42,43,43,44,44,45,45,46,46,47,47,48,48,49,49,50,50,51,51,52,52,53,53,54,54,56,56,57,57,59,59,61,61,62,62],"right_children":[2,4,6,8,10,12,14,16,18,20,22,24,26,28,30,32,34,36,38,40,42,44,46,48,50,52,54,56,58,60,62,64,66,68,70,72,74,76,78,-1,80,82,84,86,88,90,92,94,96,98,100,102,104,106,108,-1,110,112,-1,114,-1,116,118,-1,-1,-1,-1,-1,-1,-1,-1,-1,-1,-1,-1,-1,-1,-1,-1,-1,-1,-1,-1,-1,-1,-1,-1,-1,-1,-1,-1,-1,-1,-1,-1,-1,-1,-1,-1,-1,-1,-1,-1,-1,-1,-1,-1,-1,-1,-1,-1,-1,-1,-1,-1,-1,-1,-1,-1],"split_conditions":[2.1417995E-1,-3.864505E-2,1.1919184E0,-1.2567766E-1,-3.7165475E-1,2.8777074E-2,-1.0106621E0,1.2059125E-1,1.1102098E-1,-1.0562758E-1,-5.495219E-1,-3.81745E-1,1.0975072E0,3.9666682E-1,3.9666682E-1,8.507021E-2,4.21331E-2,2.5E0,9.806316E-1,-2.2861728E-1,-1.18591376E-1,-2.130299E-1,7.087673E-1,3.9530733E-1,5.777031E-1,-5.472791E-1,5.5E0,-4.4003534E-1,-3.9845176E-2,2.0296237E-1,4.5E0,2.5E0,4.1741484E-1,-4.673786E-2,1.5757589E-1,9.084213E-2,2.1421587E-1,1.3993871E-1,4.5E0,-3.5728794E-1,-9.896955E-2,1.7531276E-1,1.5E0,1.14123255E-1,-9.3054295E-2,-7.689221E-2,3.5E0,3.5E0,-3.1495932E-1,5.132012E-1,-5.8116972E-2,-5.660273E-1,1.4973801E-1,-8.5921323E-1,5.230364E-1,7.584263E-1,5.678998E-2,-2.0391402E-1,6.626758E-1,1.243677E-1,4.05246E-1,-5.98022E-1,1.6384028E-1,3.6813226E-1,2.9642812E-3,1.5379091E-2,-1.8740195E-1,-1.5169436E-1,1.7822486E-1,-1.0479461E-2,6.1325014E-1,3.6283642E-1,-2.797909E-1,-2.654393E-2,-1.9296835E-1,-8.8159675E-3,4.0640065E-1,5.248804E-1,1.1127881E0,7.6521873E-1,5.0813663E-1,5.019626E-1,8.591857E-1,6.125882E-1,-8.346887E-2,5.509661E-1,8.8990766E-1,-1.953512E-2,5.591245E-1,-1.9590278E-1,-1.08568415E-1,2.8900468E-1,-7.82773E-2,6.292614E-1,1.802334E-1,6.5501094E-1,-1.21814206E-1,-1.8982865E-2,3.9831856E-1,-1.8957894E-1,5.212004E-1,-9.450423E-2,-3.2978275E-1,1.3155061E-2,5.513663E-1,4.2611855E-1,5.9123677E-1,6.6714793E-1,1.0931879E0,5.0034577E-1,3.866299E-1,-3.3403552E-1,5.1853937E-1,6.6253006E-1,5.108655E-1,3.822988E-1,8.7882197E-1,6.746391E-1,1.2778794E0],"split_indices":[115,55,10,101,124,87,72,50,103,52,127,17,53,7,7,99,97,128,40,108,44,13,104,102,15,72,129,65,95,90,129,128,10,96,47,109,59,47,129,0,58,92,128,97,63,68,128,128,59,14,26,72,63,4,102,0,2,110,0,4,0,0,92,0,0,0,0,0,0,0,0,0,0,0,0,0,0,0,0,0,0,0,0,0,0,0,0,0,0,0,0,0,0,0,0,0,0,0,0,0,0,0,0,0,0,0,0,0,0,0,0,0,0,0,0,0,0,0,0],"split_type":[0,0,0,0,0,0,0,0,0,0,0,0,0,0,0,0,0,0,0,0,0,0,0,0,0,0,0,0,0,0,0,0,0,0,0,0,0,0,0,0,0,0,0,0,0,0,0,0,0,0,0,0,0,0,0,0,0,0,0,0,0,0,0,0,0,0,0,0,0,0,0,0,0,0,0,0,0,0,0,0,0,0,0,0,0,0,0,0,0,0,0,0,0,0,0,0,0,0,0,0,0,0,0,0,0,0,0,0,0,0,0,0,0,0,0,0,0,0,0],"sum_hessian":[1.8957538E5,1.2563691E5,6.3938465E4,8.096917E4,4.4667734E4,6.3050844E4,8.8762006E2,6.044564E4,2.0523535E4,4.117776E3,4.0549957E4,4.3300133E4,1.975071E4,3.484185E2,5.3920154E2,4.5157566E4,1.5288071E4,1.6253189E4,4.2703467E3,4.577079E2,3.660068E3,4.3246664E2,4.0117492E4,3.4757124E3,3.9824418E4,1.9424965E4,3.25746E2,1.3963257E2,2.0878593E2,4.9622342E2,4.2978157E1,2.6781082E4,1.8376484E4,1.2666321E4,2.6217507E3,7.497493E3,8.755696E3,4.116196E3,1.5415103E2,4.5754597E1,4.1195328E2,9.175516E1,3.568313E3,1.1203639E2,3.2043024E2,3.7683574E4,2.4339172E3,1.8989764E3,1.576736E3,3.8182758E4,1.6416608E3,1.665547E4,2.7694946E3,2.4043869E2,8.5307304E1,1.0473758E1,1.291588E2,1.9954504E2,9.240881E0,3.9089783E2,1.0532558E2,2.546824E1,1.7509916E1,4.0920815E3,2.2689E4,1.1862829E4,6.513656E3,1.1828129E4,8.3819147E2,2.2634668E3,3.5828406E2,4.3231192E2,7.065181E3,6.898299E3,1.8573971E3,3.7731506E3,3.430451E2,4.3860832E1,1.102902E2,1.9118103E2,2.2077225E2,3.7945774E1,5.3809383E1,1.1825892E2,3.4500542E3,3.7460594E1,7.45758E1,2.3650766E2,8.3922585E1,1.2733764E4,2.4949809E4,7.17E2,1.7169174E3,8.188334E2,1.0801431E3,2.1004367E2,1.3666923E3,3.7711305E4,4.714541E2,7.000046E2,9.4165625E2,1.5420652E4,1.234818E3,2.482771E3,2.8672363E2,1.8000574E2,6.0432953E1,5.4818985E1,3.048832E1,3.715998E1,9.1998825E1,1.9801242E2,1.5326245E0,2.1191533E2,1.7898251E2,1.1065702E1,1.4402538E1,4.4537616E0,1.3056153E1],"tree_param":{"num_deleted":"0","num_feature":"131","num_nodes":"119","size_leaf_vector":"0"}},{"base_weights":[-1.1380354E-1,-1.8691657E-1,-3.7326753E-2,3.3926895E-1,-2.124276E-1,2.96261E-1,-9.32066E-2,1.0015463E-1,1.350997E0,-2.765505E-1,-6.843711E-2,7.877651E-1,-2.073023E-2,-1.9839638E-1,2.5826808E-2,-3.495299E-3,1.8526311E0,1.826475E0,4.931375E-1,-2.310532E-1,-5.430983E-1,1.9104432E0,-8.649119E-2,1.1103498E0,4.4096637E-1,4.0662218E-2,-6.495002E-1,1.6011517E-1,-2.8771603E-1,2.2578793E0,-4.532898E-3,-1.5980908E-1,1.2903037E0,1.7137812E0,2.62515E0,1.6792684E0,2.4454887E0,2.1491733E0,-2.9410678E-1,-2.678651E-1,1.2275576E-1,-7.7743864E-1,1.4263071E-2,3.4010546E0,1.4936942E0,-1.10128425E-1,1.1072204E0,5.358042E-1,1.2474974E0,-1.0791179E-1,6.6701114E-1,-1.152825E-2,6.9970095E-1,2.7512333E0,-7.39459E-1,1.2936054E0,-4.8552584E-2,-5.120601E-1,-9.064591E-2,3.2125568E0,1.7242395E0,-1.5843673E-2,2.476244E0,2.043909E0,-2.3882778E-1,1.4102815E0,-1.2297103E0,1.5371525E0,2.111933E0,2.8948028E0,1.4858805E0,1.7997785E0,8.328067E-1,2.534987E0,3.6911646E-1,1.5475447E0,2.356473E0,1.8436928E0,-6.932852E-1,-3.2303715E-1,-1.0533991E-2,3.6387563E0,-2.7658563E-2,1.6176913E0,-8.3949935E-1,2.493393E0,-1.19862475E-1,2.3323004E0,4.243742E0,1.154376E0,1.6540495E0,-1.1869049E-1,3.1964943E0,-2.3651814E-1,2.1419551E0,8.5685146E-1,-5.3112006E-1,1.7102305E0,1.1018112E0,-3.0269778E-1,6.3492976E-2,1.2687287E-1,9.30238E-1,2.2329605E-1,-2.0021859E-1,3.6024535E-1,2.248843E0,9.8444027E-1,2.8440132E0,5.0621516E-1,-9.4309425E-1,-1.5763138E-1,2.1656177E0,-7.560203E-2,3.2097213E0,3.5453695E-1,-6.537669E-1,6.454714E-2,-2.4614942E-1,4.057136E0,2.4939206E0,1.2754633E0,1.9134434E0,6.7895985E-1,-5.4540858E-2,3.931055E0,1.928368E0],"categories":[],"categories_nodes":[],"categories_segments":[],"categories_sizes":[],"default_left":[1,1,1,1,1,1,1,1,1,1,1,1,1,1,1,1,1,1,1,1,1,1,1,1,1,1,1,1,1,1,1,1,1,1,1,1,1,1,1,1,1,1,1,1,1,1,1,1,1,1,1,1,1,1,1,1,1,1,1,1,1,1,1,0,0,0,0,0,0,0,0,0,0,0,0,0,0,0,0,0,0,0,0,0,0,0,0,0,0,0,0,0,0,0,0,0,0,0,0,0,0,0,0,0,0,0,0,0,0,0,0,0,0,0,0,0,0,0,0,0,0,0,0,0,0,0,0],"id":8,"left_children":[1,3,5,7,9,11,13,15,17,19,21,23,25,27,29,31,33,35,37,39,41,43,45,47,49,51,53,55,57,59,61,63,65,67,69,71,73,75,77,79,81,83,85,87,89,91,93,95,97,99,101,103,105,107,109,111,113,115,117,119,121,123,125,-1,-1,-1,-1,-1,-1,-1,-1,-1,-1,-1,-1,-1,-1,-1,-1,-1,-1,-1,-1,-1,-1,-1,-1,-1,-1,-1,-1,-1,-1,-1,-1,-1,-1,-1,-1,-1,-1,-1,-1,-1,-1,-1,-1,-1,-1,-1,-1,-1,-1,-1,-1,-1,-1,-1,-1,-1,-1,-1,-1,-1,-1,-1,-1],"loss_changes":[1.0188535E3,1.2505715E3,1.6602048E3,1.0420684E3,8.203428E2,1.9909442E3,9.551618E2,6.331472E2,3.3498425E2,7.453794E2,9.78275E2,5.600088E2,2.9993707E2,1.2968427E3,2.4251567E3,6.6596893E2,1.6379578E1,4.4137573E1,3.8525473E2,6.8397437E2,1.170605E3,1.4870673E2,7.656475E2,2.0381494E2,2.9984363E2,2.4350055E2,2.1348172E2,1.9106288E3,1.4332988E3,2.3912378E2,9.9078217E2,5.1209674E2,1.0905652E2,8.559174E0,4.231186E0,4.245752E1,1.7559082E1,8.223755E0,1.7267093E2,6.7528564E2,2.6176387E3,9.3923145E2,8.8272687E2,3.8112488E1,8.714569E0,7.5360657E2,7.3310126E2,1.7234993E2,1.3929468E2,2.3578754E1,2.4321893E2,2.9074307E2,2.7237234E2,1.5480042E-1,1.7148383E2,1.5896711E3,6.015694E2,1.862013E3,4.1656274E2,9.369055E1,2.3899597E1,9.450962E2,1.2015631E2,0E0,0E0,0E0,0E0,0E0,0E0,0E0,0E0,0E0,0E0,0E0,0E0,0E0,0E0,0E0,0E0,0E0,0E0,0E0,0E0,0E0,0E0,0E0,0E0,0E0,0E0,0E0,0E0,0E0,0E0,0E0,0E0,0E0,0E0,0E0,0E0,0E0,0E0,0E0,0E0,0E0,0E0,0E0,0E0,0E0,0E0,0E0,0E0,0E0,0E0,0E0,0E0,0E0,0E0,0E0,0E0,0E0,0E0,0E0,0E0,0E0,0E0,0E0,0E0],"parents":[2147483647,0,0,1,1,2,2,3,3,4,4,5,5,6,6,7,7,8,8,9,9,10,10,11,11,12,12,13,13,14,14,15,15,16,16,17,17,18,18,19,19,20,20,21,21,22,22,23,23,24,24,25,25,26,26,27,27,28,28,29,29,30,30,31,31,32,32,33,33,34,34,35,35,36,36,37,37,38,38,39,39,40,40,41,41,42,42,43,43,44,44,45,45,46,46,47,47,48,48,49,49,50,50,51,51,52,52,53,53,54,54,55,55,56,56,57,57,58,58,59,59,60,60,61,61,62,62],"right_children":[2,4,6,8,10,12,14,16,18,20,22,24,26,28,30,32,34,36,38,40,42,44,46,48,50,52,54,56,58,60,62,64,66,68,70,72,74,76,78,80,82,84,86,88,90,92,94,96,98,100,102,104,106,108,110,112,114,116,118,120,122,124,126,-1,-1,-1,-1,-1,-1,-1,-1,-1,-1,-1,-1,-1,-1,-1,-1,-1,-1,-1,-1,-1,-1,-1,-1,-1,-1,-1,-1,-1,-1,-1,-1,-1,-1,-1,-1,-1,-1,-1,-1,-1,-1,-1,-1,-1,-1,-1,-1,-1,-1,-1,-1,-1,-1,-1,-1,-1,-1,-1,-1,-1,-1,-1,-1],"split_conditions":[-5.446832E-1,-7.840143E-1,3.1027058E-1,-3.3131525E-2,2.4005648E-1,2.2733293E-1,1.339167E-1,4.9955463E-1,6.866495E-1,-3.0595187E-2,-7.1684146E-1,2.1840456E-1,3.385172E-1,7.041726E-2,-4.0581483E-1,3.2217675E-1,-9.858085E-2,5.484435E-1,2.57502E-1,-6.603724E-2,1.3336189E-2,-3.8479084E-1,8.380488E-1,2.5E0,4.5E0,5.816971E-1,-3.0714738E-1,-3.326578E-1,3.5E0,1.9094148E-1,1.212386E0,-5.450522E-1,-3.5927366E-2,-4.63012E-1,4.4745135E-1,5.5E0,-6.176424E-1,-3.4146202E-1,1.06320634E-1,2.2423565E-1,-5.1473665E-1,-3.619851E-1,-2.967295E-1,-3.798505E-1,-2.173234E-1,1.0677094E0,-1.8384436E-1,1.6483465E-1,6.5E0,2.5E0,-1.545671E-1,2.5885177E-1,2.7783966E-1,-7.2107583E-1,-1.7277814E-1,1.2152216E-1,1.9462429E-1,-1.2197863E-1,1.24977164E-1,3.5792807E-1,1.3045202E-1,-7.909838E-1,1.9698316E-1,6.1317277E-1,-7.164834E-2,4.2308447E-1,-3.689131E-1,4.611458E-1,6.335799E-1,8.6844087E-1,4.4576415E-1,5.3993356E-1,2.4984202E-1,7.6049614E-1,1.1073494E-1,4.6426344E-1,7.069419E-1,5.5310786E-1,-2.0798558E-1,-9.691115E-2,-3.1601975E-3,1.0916269E0,-8.297569E-3,4.853074E-1,-2.5184983E-1,7.480179E-1,-3.5958745E-2,6.9969016E-1,1.2731227E0,3.4631282E-1,4.9621487E-1,-3.5607148E-2,9.589483E-1,-7.095545E-2,6.425866E-1,2.5705546E-1,-1.5933603E-1,5.1306915E-1,3.3054337E-1,-9.080934E-2,1.9047894E-2,3.806186E-2,2.7907142E-1,6.698882E-2,-6.006558E-2,1.0807361E-1,6.7465293E-1,2.953321E-1,8.53204E-1,1.5186456E-1,-2.829283E-1,-4.7289416E-2,6.496853E-1,-2.268061E-2,9.6291643E-1,1.0636109E-1,-1.9613007E-1,1.936414E-2,-7.384483E-2,1.2171409E0,7.481762E-1,3.8263902E-1,5.740331E-1,2.0368797E-1,-1.6362257E-2,1.1793165E0,5.785104E-1],"split_indices":[8,80,25,61,91,41,115,21,57,64,52,20,106,91,56,70,118,57,27,64,97,0,39,130,130,113,33,61,128,115,26,4,61,0,34,128,8,35,2,103,59,62,39,125,103,21,68,10,128,130,13,113,59,95,103,22,37,75,26,105,92,16,115,0,0,0,0,0,0,0,0,0,0,0,0,0,0,0,0,0,0,0,0,0,0,0,0,0,0,0,0,0,0,0,0,0,0,0,0,0,0,0,0,0,0,0,0,0,0,0,0,0,0,0,0,0,0,0,0,0,0,0,0,0,0,0,0],"split_type":[0,0,0,0,0,0,0,0,0,0,0,0,0,0,0,0,0,0,0,0,0,0,0,0,0,0,0,0,0,0,0,0,0,0,0,0,0,0,0,0,0,0,0,0,0,0,0,0,0,0,0,0,0,0,0,0,0,0,0,0,0,0,0,0,0,0,0,0,0,0,0,0,0,0,0,0,0,0,0,0,0,0,0,0,0,0,0,0,0,0,0,0,0,0,0,0,0,0,0,0,0,0,0,0,0,0,0,0,0,0,0,0,0,0,0,0,0,0,0,0,0,0,0,0,0,0,0],"sum_hessian":[1.822166E5,9.315627E4,8.906032E4,4.3070747E3,8.8849195E4,1.2777536E4,7.628278E4,3.484612E3,8.224629E2,6.1472773E4,2.7376428E4,5.0091772E3,7.7683594E3,4.04959E4,3.578688E4,3.2909663E3,1.9364566E2,5.2844006E2,2.9402286E2,5.2511414E4,8.961356E3,2.4655988E2,2.7129867E4,2.594048E3,2.4151292E3,7.0781875E3,6.901716E2,8.076722E3,3.2419178E4,4.7924585E2,3.5307633E4,2.9370012E3,3.5396518E2,1.6687122E2,2.6774433E1,4.299154E2,9.852465E1,9.4179085E1,1.9984375E2,4.756299E4,4.9484263E3,6.3085547E3,2.652802E3,5.230751E1,1.9425237E2,2.6603979E4,5.258899E2,5.0083426E2,2.0932139E3,7.0464484E2,1.7104844E3,6.559696E3,5.1849164E2,1.7024055E1,6.731475E2,1.2548944E3,6.821828E3,1.5159756E4,1.7259422E4,1.700348E2,3.0921103E2,3.5148375E4,1.5926076E2,1.0080579E2,2.8361953E3,3.3829913E2,1.5666052E1,1.1895913E2,4.791209E1,2.0404076E1,6.3703585E0,3.7535074E2,5.4564655E1,9.424166E1,4.2829895E0,2.6304123E1,6.787496E1,3.0874844E1,1.6896892E2,3.916559E4,8.397397E3,2.020573E2,4.746369E3,1.5870056E2,6.149854E3,1.3525247E2,2.5175496E3,2.4721582E1,2.758593E1,6.497069E1,1.2928168E2,2.653623E4,6.7747955E1,2.2911958E2,2.9677032E2,3.8513925E2,1.1569501E2,4.9864932E2,1.5945645E3,3.2946817E2,3.751767E2,5.6093494E2,1.1495494E3,2.9224885E3,3.6372075E3,4.2630923E2,9.218242E1,1.4286667E0,1.5595388E1,9.4371826E1,5.787757E2,4.7132172E2,7.835727E2,6.76663E3,5.5198227E1,2.1303376E3,1.3029418E4,8.638627E3,8.620795E3,7.603217E1,9.400263E1,9.399761E1,2.1521342E2,1.8534445E3,3.329493E4,4.187972E1,1.1738104E2],"tree_param":{"num_deleted":"0","num_feature":"131","num_nodes":"127","size_leaf_vector":"0"}},{"base_weights":[-8.466818E-2,-1.5550795E-1,-2.4240639E-2,3.0896567E-2,-2.3401497E-1,1.012735E-1,-1.0655379E-1,4.7144005E-3,1.5160482E0,-4.1101333E-1,-1.3574369E-1,2.833923E-1,-1.5725057E-1,-1.4009544E-1,1.4014201E-1,-1.5960317E-2,1.8978119E0,-4.174948E-1,1.5699247E0,-5.0080186E-1,1.5472516E-1,2.3038898E0,-1.6838062E-1,1.9449505E0,1.4295755E-1,2.1464723E-1,-5.78062E-1,-1.7999768E-2,-2.3507376E-1,8.1588924E-2,1.7400415E0,-3.5790917E-2,1.3137394E0,1.8065879E0,3.201947E0,-1.1265094E0,1.1818037E0,2.6587386E0,1.4646041E0,-3.179305E-1,-7.7762246E-1,-4.2605035E-2,1.2615286E0,1.6843253E0,2.673087E0,7.78846E-3,-3.7377322E-1,2.2588782E0,1.4908196E0,1.1475015E-1,2.7408066E0,4.3314993E-1,-3.1880394E-2,5.7623464E-1,-7.5224006E-1,-3.432084E-2,2.3000097E0,-5.471856E-1,-1.6821435E-1,2.1428452E0,3.7604075E-2,1.0529878E0,2.1018255E0,2.596832E-1,-1.1970251E-1,2.019789E0,-8.6460114E-1,1.3844887E0,2.0124454E0,3.423826E0,1.5741302E0,1.6615059E0,3.3972707E0,1.6010394E0,1.2693012E0,-5.319048E-1,3.5123843E-1,2.3115416E0,-8.1252646E-1,-1.6478978E-1,1.2616782E0,1.6046709E0,-1.0599188E0,1.2724324E0,1.8482337E0,1.8209351E0,2.9643033E0,-1.06098786E-1,9.982885E-1,2.040877E-1,-4.6027258E-1,1.4168105E0,2.4619353E0,1.0858053E0,1.5707954E0,9.951239E-3,4.421667E-1,6.7455834E-1,3.882654E0,2.8883433E-1,9.044721E-1,3.2450187E-1,-2.2485471E-1,-4.921468E-1,2.1308484E0,-8.725023E-1,1.3169038E0,-4.3302815E-2,2.4829206E0,1.5504959E0,3.130693E0,-7.336717E-1,3.8036844E-1,-1.7772937E-1,2.570324E0,3.6443326E0,1.6712126E0,-6.373098E-2,6.4744556E-1,1.3513173E0,-9.2842424E-1,3.0781987E0,1.8264741E0],"categories":[],"categories_nodes":[],"categories_segments":[],"categories_sizes":[],"default_left":[1,1,1,1,1,1,1,1,1,1,1,1,1,1,1,1,1,1,1,1,1,1,1,1,1,1,1,1,1,1,1,1,1,1,1,0,0,1,1,1,1,1,1,1,1,1,1,1,1,1,1,1,1,1,1,1,1,1,1,1,1,1,1,0,0,0,0,0,0,0,0,0,0,0,0,0,0,0,0,0,0,0,0,0,0,0,0,0,0,0,0,0,0,0,0,0,0,0,0,0,0,0,0,0,0,0,0,0,0,0,0,0,0,0,0,0,0,0,0,0,0,0,0],"id":9,"left_children":[1,3,5,7,9,11,13,15,17,19,21,23,25,27,29,31,33,35,37,39,41,43,45,47,49,51,53,55,57,59,61,63,65,67,69,-1,-1,71,73,75,77,79,81,83,85,87,89,91,93,95,97,99,101,103,105,107,109,111,113,115,117,119,121,-1,-1,-1,-1,-1,-1,-1,-1,-1,-1,-1,-1,-1,-1,-1,-1,-1,-1,-1,-1,-1,-1,-1,-1,-1,-1,-1,-1,-1,-1,-1,-1,-1,-1,-1,-1,-1,-1,-1,-1,-1,-1,-1,-1,-1,-1,-1,-1,-1,-1,-1,-1,-1,-1,-1,-1,-1,-1,-1,-1],"loss_changes":[7.526106E2,1.1844188E3,9.802866E2,9.3268365E2,9.9052563E2,1.7693987E3,4.741811E2,9.226076E2,4.394232E1,1.0328113E3,2.916181E3,5.144544E3,2.4309626E3,5.849808E2,6.4241626E2,6.149135E2,2.4511353E1,1.5000174E1,4.2489075E1,8.879863E2,6.084203E2,1.0609424E2,1.3076096E3,2.4159131E2,1.4895361E3,4.442147E2,1.4655823E3,8.3514703E2,5.919929E2,5.999365E2,5.7969055E1,5.6969946E2,5.28781E2,1.8094177E1,1.5592957E-1,0E0,0E0,1.9725677E1,7.854309E0,1.5133348E3,7.5442725E2,3.7709933E2,3.3746906E2,1.0019287E1,6.9363525E1,2.1945986E3,8.340906E2,1.6989307E2,2.113794E1,6.901647E2,5.1252466E2,2.9709656E2,2.666069E2,1.5889269E3,1.5768896E3,4.9570276E2,9.1240906E1,8.660735E2,6.093913E2,9.181329E1,4.0054218E2,5.1806595E1,3.6747498E1,0E0,0E0,0E0,0E0,0E0,0E0,0E0,0E0,0E0,0E0,0E0,0E0,0E0,0E0,0E0,0E0,0E0,0E0,0E0,0E0,0E0,0E0,0E0,0E0,0E0,0E0,0E0,0E0,0E0,0E0,0E0,0E0,0E0,0E0,0E0,0E0,0E0,0E0,0E0,0E0,0E0,0E0,0E0,0E0,0E0,0E0,0E0,0E0,0E0,0E0,0E0,0E0,0E0,0E0,0E0,0E0,0E0,0E0,0E0,0E0],"parents":[2147483647,0,0,1,1,2,2,3,3,4,4,5,5,6,6,7,7,8,8,9,9,10,10,11,11,12,12,13,13,14,14,15,15,16,16,17,17,18,18,19,19,20,20,21,21,22,22,23,23,24,24,25,25,26,26,27,27,28,28,29,29,30,30,31,31,32,32,33,33,34,34,37,37,38,38,39,39,40,40,41,41,42,42,43,43,44,44,45,45,46,46,47,47,48,48,49,49,50,50,51,51,52,52,53,53,54,54,55,55,56,56,57,57,58,58,59,59,60,60,61,61,62,62],"right_children":[2,4,6,8,10,12,14,16,18,20,22,24,26,28,30,32,34,36,38,40,42,44,46,48,50,52,54,56,58,60,62,64,66,68,70,-1,-1,72,74,76,78,80,82,84,86,88,90,92,94,96,98,100,102,104,106,108,110,112,114,116,118,120,122,-1,-1,-1,-1,-1,-1,-1,-1,-1,-1,-1,-1,-1,-1,-1,-1,-1,-1,-1,-1,-1,-1,-1,-1,-1,-1,-1,-1,-1,-1,-1,-1,-1,-1,-1,-1,-1,-1,-1,-1,-1,-1,-1,-1,-1,-1,-1,-1,-1,-1,-1,-1,-1,-1,-1,-1,-1,-1,-1,-1],"split_conditions":[-1.4477038E-1,-2.594578E-1,4.2242873E-1,1.0609841E0,1.9873834E-1,4.0522438E-2,8.7425575E-2,9.574629E-1,-4.6632856E-1,6.316176E-2,-5.496663E-1,1.5E0,2.4316896E-1,-2.2082269E-1,2.7533752E-1,6.8176836E-1,1.1927894E-1,-2.803513E-1,-3.0393505E-1,9.068383E-2,8.8185534E-2,-1.8797064E-1,-6.8660036E-2,1.4266106E-1,7.5431144E-1,1.2655956E-1,9.7743765E-2,7.0680755E-1,2.5E0,-5.271957E-1,-1.6851741E-1,-1.2643729E-1,1.0339043E0,3.5E0,-6.4173885E-2,-3.3795285E-1,3.5454112E-1,-5.534493E-2,2.068083E-1,6.925371E-2,-1.3452582E-1,6.263188E-1,6.168959E-1,-1.6515088E-1,-3.5613406E-1,3.6730936E-1,-7.764373E-3,1.640623E-1,4.5E0,-3.4110084E-1,-7.06925E-2,-2.929824E-1,-5.216141E-2,-2.6775503E-1,2.5319865E-1,9.386833E-1,4.5E0,2.16582E-1,7.7569914E-1,-1.8041648E-1,-2.6892144E-2,2.5863612E-1,5.685036E-1,7.790496E-2,-3.5910755E-2,6.059367E-1,-2.5938034E-1,4.1534662E-1,6.0373366E-1,1.0271479E0,4.7223908E-1,4.984518E-1,1.0191813E0,4.8031184E-1,3.8079038E-1,-1.5957145E-1,1.05371535E-1,6.934625E-1,-2.4375795E-1,-4.9436938E-2,3.7850347E-1,4.814013E-1,-3.1797564E-1,3.8172975E-1,5.544701E-1,5.4628056E-1,8.89291E-1,-3.1829637E-2,2.9948658E-1,6.1226312E-2,-1.3808177E-1,4.2504317E-1,7.385806E-1,3.257416E-1,4.7123864E-1,2.985372E-3,1.3265002E-1,2.0236751E-1,1.1647962E0,8.6650304E-2,2.7134165E-1,9.735057E-2,-6.745642E-2,-1.4764404E-1,6.3925457E-1,-2.617507E-1,3.9507118E-1,-1.2990845E-2,7.448762E-1,4.6514878E-1,9.392079E-1,-2.2010152E-1,1.1411054E-1,-5.3318813E-2,7.7109724E-1,1.0932999E0,5.013638E-1,-1.9119294E-2,1.9423367E-1,4.053952E-1,-2.785273E-1,9.2345965E-1,5.479422E-1],"split_indices":[36,82,25,10,113,123,122,41,73,65,56,128,51,101,47,15,4,4,0,73,13,75,87,85,21,9,73,14,128,14,39,111,116,129,94,0,0,73,109,117,40,41,79,98,80,3,91,92,129,8,118,8,103,30,83,51,129,115,42,59,11,1,48,0,0,0,0,0,0,0,0,0,0,0,0,0,0,0,0,0,0,0,0,0,0,0,0,0,0,0,0,0,0,0,0,0,0,0,0,0,0,0,0,0,0,0,0,0,0,0,0,0,0,0,0,0,0,0,0,0,0,0,0],"split_type":[0,0,0,0,0,0,0,0,0,0,0,0,0,0,0,0,0,0,0,0,0,0,0,0,0,0,0,0,0,0,0,0,0,0,0,0,0,0,0,0,0,0,0,0,0,0,0,0,0,0,0,0,0,0,0,0,0,0,0,0,0,0,0,0,0,0,0,0,0,0,0,0,0,0,0,0,0,0,0,0,0,0,0,0,0,0,0,0,0,0,0,0,0,0,0,0,0,0,0,0,0,0,0,0,0,0,0,0,0,0,0,0,0,0,0,0,0,0,0,0,0,0,0],"sum_hessian":[1.7581581E5,8.093425E4,9.4881555E4,2.3985193E4,5.6949062E4,3.757919E4,5.7302367E4,2.3570662E4,4.145308E2,2.0329682E4,3.661938E4,2.204756E4,1.553163E4,5.044422E4,6.8581455E3,2.3317006E4,2.5365593E2,1.1054454E1,4.0347635E2,1.7545195E4,2.7844878E3,4.825009E2,3.613688E4,1.7172317E3,2.0330328E4,8.24526E3,7.28637E3,2.207183E4,2.837239E4,6.617027E3,2.4111879E2,2.2975334E4,3.4167172E2,2.393021E2,1.435384E1,7.8638206E0,3.190633E0,3.344761E1,3.7002875E2,1.0566784E4,6.97841E3,2.3639792E3,4.2050854E2,1.8223952E2,3.0026138E2,1.9452807E4,1.6684072E4,1.01299963E3,7.0423206E2,2.0112986E4,2.1734232E2,4.3706777E3,3.874582E3,9.550231E2,6.331347E3,2.1918486E4,1.5334256E2,5.004288E3,2.3368102E4,1.3725273E2,6.479774E3,8.451991E1,1.5659888E2,5.0811646E3,1.789417E4,2.5809128E2,8.3580444E1,8.0980835E1,1.5832126E2,1.1661059E1,2.6927803E0,1.5613964E1,1.7833645E1,2.1360808E2,1.5642067E2,8.0067427E3,2.5600417E3,7.723833E1,6.901172E3,2.1622905E3,2.0168887E2,3.66625E2,5.388354E1,5.437102E1,1.27868484E2,7.832403E1,2.2193735E2,1.7447584E4,2.0052224E3,2.1720798E3,1.4511992E4,1.9836539E2,8.146342E2,1.1853302E2,5.8569904E2,1.5236988E4,4.8759976E3,7.7924164E1,1.3941815E2,3.3473538E3,1.0233239E3,1.3607979E3,2.5137842E3,5.664343E2,3.8858875E2,5.984118E3,3.472291E2,2.1841535E4,7.695177E1,8.211651E1,7.122605E1,4.166763E3,8.375249E2,2.3288123E4,7.997923E1,3.11994E1,1.0605333E2,5.557243E3,9.2253064E2,7.373593E1,1.0783981E1,3.2209053E1,1.2438982E2],"tree_param":{"num_deleted":"0","num_feature":"131","num_nodes":"123","size_leaf_vector":"0"}},{"base_weights":[-6.4242736E-2,-3.162258E-2,-1.7960495E-1,-1.0042555E-1,4.156492E-2,4.773012E-1,-2.0344536E-1,-3.7644955E-3,-1.7466769E-1,1.8087779E-1,-6.106382E-2,1.8166344E0,2.1483812E-1,-6.1879367E-1,-1.6994618E-1,1.5599738E0,-2.019915E-2,-3.0410936E-1,-8.148381E-2,1.695554E-1,3.0796912E0,-7.2137237E-1,-2.6058514E-2,1.571264E0,3.0842638E0,4.4637013E-2,1.9733101E0,2.0858145E0,-6.7938805E-1,-2.4152611E-1,5.365782E-2,1.4208614E0,2.0218148E0,-2.784752E-2,2.6172433E0,-3.188845E-1,3.1225011E0,-1.0995066E-1,2.7700853E0,8.327269E-2,4.9065563E-1,5.1024413E0,2.0989096E0,2.8845167E0,-7.9987127E-1,1.1886232E-1,-1.9681686E-1,1.7978054E0,1.140962E0,1.0636898E0,3.3559473E0,6.901275E-1,-2.862791E-1,1.4342908E0,2.7573411E0,1.4228216E0,2.308546E0,-2.0413844E-1,-9.331768E-1,-5.437495E-1,-1.7575976E-1,1.5525103E0,-5.6037493E-2,1.3837615E0,2.1942382E0,1.4867458E0,2.6786902E0,5.1464003E-2,-2.1452594E-1,1.731131E0,3.4286084E0,-3.27999E-1,3.340102E0,1.7606893E0,3.8188193E0,-1.2536152E-1,2.095287E0,3.8364859E0,1.7221886E0,1.1326316E-1,-8.787379E-1,7.9741603E-1,-1.6646616E-1,1.5135597E0,5.9266386E0,2.8375165E0,1.6934785E0,2.1137743E0,3.4821353E0,2.96966E-1,-9.90172E-1,1.689236E0,3.4367166E-2,4.522839E-2,-4.2176569E-1,2.0740771E0,1.5319419E0,4.314519E0,2.5902421E0,3.6878675E-1,2.365544E0,-4.0196478E-1,2.5829554E0,1.2130375E0,2.0631511E0,3.1144345E0,1.3250866E0,7.156635E-1,2.338422E0,-3.7746605E-1,2.4346604E0,2.30375E0,-9.8301715E-1,-5.990833E-1,1.6464552E0,2.5159192E0,-1.9214563E-1,1.9251847E0,-2.2788633E-1,-1.5711457E-1,1.6840893E0],"categories":[],"categories_nodes":[],"categories_segments":[],"categories_sizes":[],"default_left":[1,1,1,1,1,1,1,1,1,1,1,1,1,1,1,1,1,1,1,1,1,1,1,1,1,1,1,1,1,1,1,1,1,1,1,1,1,1,1,1,1,1,1,1,1,1,1,1,0,0,1,1,1,1,1,0,1,1,1,1,1,1,1,0,0,0,0,0,0,0,0,0,0,0,0,0,0,0,0,0,0,0,0,0,0,0,0,0,0,0,0,0,0,0,0,0,0,0,0,0,0,0,0,0,0,0,0,0,0,0,0,0,0,0,0,0,0,0,0,0,0],"id":10,"left_children":[1,3,5,7,9,11,13,15,17,19,21,23,25,27,29,31,33,35,37,39,41,43,45,47,49,51,53,55,57,59,61,63,65,67,69,71,73,75,77,79,81,83,85,87,89,91,93,95,-1,-1,97,99,101,103,105,-1,107,109,111,113,115,117,119,-1,-1,-1,-1,-1,-1,-1,-1,-1,-1,-1,-1,-1,-1,-1,-1,-1,-1,-1,-1,-1,-1,-1,-1,-1,-1,-1,-1,-1,-1,-1,-1,-1,-1,-1,-1,-1,-1,-1,-1,-1,-1,-1,-1,-1,-1,-1,-1,-1,-1,-1,-1,-1,-1,-1,-1,-1,-1],"loss_changes":[6.3857404E2,6.6614685E2,5.8590625E2,4.8933258E2,9.165188E2,4.6020905E2,5.0213574E2,7.6130853E2,4.6515283E2,8.9195465E2,8.5317206E2,6.189142E1,3.2815454E2,4.428617E2,5.3466077E2,1.6921997E1,5.91422E2,8.1824744E2,1.8206455E3,7.504178E2,1.9905817E2,5.283068E2,8.674986E2,1.5671356E1,1.4962158E1,2.1400653E2,3.69368E1,5.467987E0,3.176692E2,5.028474E2,1.3320322E3,3.8539124E0,2.0253937E1,4.328034E2,5.501544E1,5.371498E2,5.9081787E1,7.5486206E2,2.4112634E2,6.161096E2,1.1565457E3,9.109302E1,1.7027252E1,1.0976013E1,3.8006897E2,2.5160508E3,8.762521E2,5.4431458E0,0E0,0E0,1.0325012E1,1.8192467E2,2.2091864E2,5.765373E0,1.5480377E1,0E0,3.6140442E-1,4.2110648E2,2.7937708E2,5.489911E2,9.171312E2,3.670177E2,1.328128E3,0E0,0E0,0E0,0E0,0E0,0E0,0E0,0E0,0E0,0E0,0E0,0E0,0E0,0E0,0E0,0E0,0E0,0E0,0E0,0E0,0E0,0E0,0E0,0E0,0E0,0E0,0E0,0E0,0E0,0E0,0E0,0E0,0E0,0E0,0E0,0E0,0E0,0E0,0E0,0E0,0E0,0E0,0E0,0E0,0E0,0E0,0E0,0E0,0E0,0E0,0E0,0E0,0E0,0E0,0E0,0E0,0E0,0E0],"parents":[2147483647,0,0,1,1,2,2,3,3,4,4,5,5,6,6,7,7,8,8,9,9,10,10,11,11,12,12,13,13,14,14,15,15,16,16,17,17,18,18,19,19,20,20,21,21,22,22,23,23,24,24,25,25,26,26,27,27,28,28,29,29,30,30,31,31,32,32,33,33,34,34,35,35,36,36,37,37,38,38,39,39,40,40,41,41,42,42,43,43,44,44,45,45,46,46,47,47,50,50,51,51,52,52,53,53,54,54,56,56,57,57,58,58,59,59,60,60,61,61,62,62],"right_children":[2,4,6,8,10,12,14,16,18,20,22,24,26,28,30,32,34,36,38,40,42,44,46,48,50,52,54,56,58,60,62,64,66,68,70,72,74,76,78,80,82,84,86,88,90,92,94,96,-1,-1,98,100,102,104,106,-1,108,110,112,114,116,118,120,-1,-1,-1,-1,-1,-1,-1,-1,-1,-1,-1,-1,-1,-1,-1,-1,-1,-1,-1,-1,-1,-1,-1,-1,-1,-1,-1,-1,-1,-1,-1,-1,-1,-1,-1,-1,-1,-1,-1,-1,-1,-1,-1,-1,-1,-1,-1,-1,-1,-1,-1,-1,-1,-1,-1,-1,-1,-1],"split_conditions":[2.3818484E-1,-3.712889E-1,-6.513692E-1,-1.7500441E-1,9.2343196E-2,-1.2405412E-1,-7.5882435E-1,-7.2242236E-1,1.06489435E-1,4.4681978E-1,1.0080449E-1,-9.234309E-2,1.5529552E-1,-9.0708137E-1,4.0086728E-1,-2.6522166E-1,1.3942282E0,9.943135E-1,2.3702241E-1,-1.8913297E-1,3.9454836E-1,-2.872249E-1,-6.380911E-2,2.3037282E-1,-2.7543366E-1,2.818095E-2,2.5E0,1.5994301E-1,-3.677845E-2,-2.9593313E-1,-6.916106E-1,5.1935786E-1,1.311397E-1,-6.539589E-2,4.5E0,4.924116E-1,-2.3620296E-1,1.3574215E0,2.0765099E-1,1.35E1,3.5990006E-1,-1.9819412E-1,2.3477316E-1,-2.8076496E-2,1.11783445E-1,1.5E0,5.532067E-1,4.6249002E-1,3.422886E-1,3.1910697E-1,-2.930981E-1,1.2162016E-1,5.7228856E-2,8.746548E-2,4.4202355E-1,4.268465E-1,-5.7395357E-1,7.396783E-2,-4.652712E-1,2.729563E-1,-8.0834E-1,1.5601696E-1,3.2321343E-1,4.1512847E-1,6.582715E-1,4.4602376E-1,8.036071E-1,1.5439201E-2,-6.435779E-2,5.193393E-1,1.0285826E0,-9.8399706E-2,1.0020306E0,5.282068E-1,1.1456459E0,-3.7608456E-2,6.285862E-1,1.1509458E0,5.166566E-1,3.397895E-2,-2.636214E-1,2.3922482E-1,-4.9939852E-2,4.5406792E-1,1.7779917E0,8.51255E-1,5.080436E-1,6.341323E-1,1.0446407E0,8.9089796E-2,-2.970516E-1,5.0677085E-1,1.0310151E-2,1.3568517E-2,-1.2652971E-1,6.2222314E-1,4.595826E-1,1.2943558E0,7.7707267E-1,1.1063603E-1,7.096633E-1,-1.2058944E-1,7.7488667E-1,3.6391127E-1,6.1894536E-1,9.343304E-1,3.97526E-1,2.1469906E-1,7.0152664E-1,-1.1323982E-1,7.303982E-1,6.9112504E-1,-2.9490516E-1,-1.7972499E-1,4.9393657E-1,7.547758E-1,-5.7643693E-2,5.775554E-1,-6.83659E-2,-4.7134373E-2,5.052268E-1],"split_indices":[4,30,101,125,102,45,69,56,115,14,102,6,47,5,121,0,18,56,4,16,89,4,75,27,1,106,128,105,77,64,29,71,92,101,129,13,110,10,115,129,92,88,91,70,22,128,40,115,0,0,103,3,60,87,100,0,101,60,42,36,12,1,58,0,0,0,0,0,0,0,0,0,0,0,0,0,0,0,0,0,0,0,0,0,0,0,0,0,0,0,0,0,0,0,0,0,0,0,0,0,0,0,0,0,0,0,0,0,0,0,0,0,0,0,0,0,0,0,0,0,0],"split_type":[0,0,0,0,0,0,0,0,0,0,0,0,0,0,0,0,0,0,0,0,0,0,0,0,0,0,0,0,0,0,0,0,0,0,0,0,0,0,0,0,0,0,0,0,0,0,0,0,0,0,0,0,0,0,0,0,0,0,0,0,0,0,0,0,0,0,0,0,0,0,0,0,0,0,0,0,0,0,0,0,0,0,0,0,0,0,0,0,0,0,0,0,0,0,0,0,0,0,0,0,0,0,0,0,0,0,0,0,0,0,0,0,0,0,0,0,0,0,0,0,0],"sum_hessian":[1.6969262E5,1.3228781E5,3.7404812E4,6.818618E4,6.410164E4,1.309287E3,3.6095527E4,2.962125E4,3.856493E4,2.7190824E4,3.6910812E4,2.1356358E2,1.0957234E3,2.6926414E3,3.3402883E4,3.0710022E2,2.931415E4,1.6141089E4,2.2423842E4,2.7086088E4,1.0473631E2,1.8572734E3,3.505354E4,1.8080531E2,3.275828E1,9.999632E2,9.5760254E1,5.8271893E1,2.6343694E3,2.530287E4,8.100015E3,2.3914354E2,6.7956665E1,2.9230373E4,8.377627E1,1.6072692E4,6.839658E1,2.2203152E4,2.2068979E2,2.1350314E4,5.735775E3,3.2828617E1,7.19077E1,3.880912E1,1.8184642E3,1.8961455E4,1.6092086E4,1.1636469E2,6.444061E1,4.4651413E0,2.829314E1,3.3853186E2,6.6143134E2,5.8423573E1,3.7336685E1,1.6511396E1,4.1760498E1,9.176901E2,1.7166793E3,4.520776E3,2.0782094E4,5.514856E2,7.5485293E3,2.3085826E2,8.285285E0,3.9249054E1,2.8707611E1,2.051512E4,8.715255E3,4.1541424E1,4.2234844E1,1.6033663E4,3.902928E1,2.4334126E1,4.4062454E1,2.2050004E4,1.5314882E2,1.08060265E2,1.1262952E2,2.0705701E4,6.4461346E2,3.91019E3,1.8255848E3,6.6608887E0,2.616773E1,2.3357216E1,4.8550484E1,1.8931004E1,1.9878119E1,2.6877344E2,1.5496908E3,9.6717413E2,1.7994281E4,7.7518657E3,8.34022E3,5.3729984E1,6.2634705E1,1.0506081E1,1.778706E1,2.8507523E2,5.3456608E1,6.36623E2,2.4808325E1,4.5384716E1,1.30388565E1,2.8945433E1,8.391251E0,1.2282623E0,4.0532234E1,8.619317E2,5.575841E1,2.5345871E1,1.6913334E3,4.410085E3,1.1069087E2,1.24824486E2,2.065727E4,4.5596182E2,9.552375E1,7.1349956E3,4.135339E2],"tree_param":{"num_deleted":"0","num_feature":"131","num_nodes":"121","size_leaf_vector":"0"}},{"base_weights":[-4.7459804E-2,3.0371334E-2,-8.763123E-2,1.6526118E-2,1.4536278E0,-3.041841E-1,-5.9817255E-2,1.7330421E0,6.7556556E-3,-1.7533384E-1,1.8301265E0,-4.8865414E-1,1.4274617E-2,4.0680636E-2,-1.3870548E-1,1.5055409E-1,2.0530295E0,1.332147E0,-2.5055716E-3,-9.4452035E-1,2.8589902E0,-8.7156475E-2,2.0001748E0,-5.097235E-1,2.726684E0,3.0549364E0,-8.764047E-2,7.188607E-3,9.9640137E-1,-3.4847444E-1,-6.8321556E-2,1.3808131E0,-5.453133E-1,1.8196226E0,3.5426574E0,7.958486E-2,2.198179E0,-7.1100085E-3,2.3344634E0,2.0245888E0,-1.1043369E0,1.8632144E0,3.9824746E0,-1.0090036E0,2.8187306E0,1.832585E0,3.1277585E0,-5.340919E-1,2.0098066E0,4.054661E0,2.3407695E0,1.9087274E0,3.9558103E0,1.4190713E0,-2.032956E-1,2.9281387E0,-3.7805943E-3,2.09645E0,4.442625E-1,-4.7803304E-1,3.4765504E-2,8.730427E-3,-3.005173E-1,-7.5016844E-1,1.6137627E0,1.5894817E0,2.2778766E0,5.584778E0,2.2633545E0,-6.431968E-1,2.032278E0,1.8756248E0,4.9806385E0,1.4913431E0,-1.401894E-2,2.0380764E0,3.7376077E0,2.1468313E0,4.613475E0,-8.267453E-3,-1.1142943E0,7.7750653E-1,2.9847624E0,1.4730335E0,2.0764537E0,3.42848E0,1.8952957E0,1.3224874E0,-5.64352E-1,2.1404648E0,-9.064181E-1,1.4727988E0,2.5967093E0,2.4774828E0,1.4812205E0,4.733459E0,2.4063146E0,-2.1218641E-1,2.0060508E0,2.2368588E0,-2.9039803E-1,3.4280777E0,1.7230906E0,2.024161E0,-1.7558645E-2,1.1825832E0,2.5052621E0,1.3988144E0,-3.3851352E-1,3.190923E0,-4.947069E-1,1.4839481E0,-4.2432177E-1,1.5986292E-1,-1.07516184E-1,-3.327267E-1,2.304726E0],"categories":[],"categories_nodes":[],"categories_segments":[],"categories_sizes":[],"default_left":[1,1,1,1,1,1,1,1,1,1,1,1,1,1,1,1,1,1,1,1,1,1,1,1,1,1,1,1,1,1,1,0,1,1,1,1,1,1,1,0,0,0,1,1,1,1,1,1,1,0,1,1,1,1,1,1,1,1,1,1,1,1,1,0,0,0,0,0,0,0,0,0,0,0,0,0,0,0,0,0,0,0,0,0,0,0,0,0,0,0,0,0,0,0,0,0,0,0,0,0,0,0,0,0,0,0,0,0,0,0,0,0,0,0,0,0,0],"id":11,"left_children":[1,3,5,7,9,11,13,15,17,19,21,23,25,27,29,31,33,35,37,39,41,43,45,47,49,51,53,55,57,59,61,-1,63,65,67,69,71,73,75,-1,-1,-1,77,79,81,83,85,87,89,-1,91,93,95,97,99,101,103,105,107,109,111,113,115,-1,-1,-1,-1,-1,-1,-1,-1,-1,-1,-1,-1,-1,-1,-1,-1,-1,-1,-1,-1,-1,-1,-1,-1,-1,-1,-1,-1,-1,-1,-1,-1,-1,-1,-1,-1,-1,-1,-1,-1,-1,-1,-1,-1,-1,-1,-1,-1,-1,-1,-1,-1,-1,-1],"loss_changes":[5.177898E2,1.1109272E3,6.5789813E2,9.3642554E2,3.3343225E2,7.3036316E2,7.674376E2,1.5971515E2,6.8151166E2,2.4282E2,1.440398E2,5.3470337E2,1.4136974E3,1.3626118E3,8.0064966E2,4.7180782E1,8.492175E1,4.1774597E2,5.9331305E2,4.1538155E1,1.6133682E1,1.0170888E2,7.086902E1,4.8131628E2,1.6854523E1,1.4521643E2,7.6949084E2,1.317822E3,8.744791E2,6.7648596E2,7.26507E2,0E0,1.6848484E1,2.0556213E1,7.759952E1,2.2504532E2,1.950542E2,5.6972504E2,3.74729E1,0E0,0E0,0E0,5.3582764E-1,3.0206127E0,7.8099823E-1,2.8096924E1,1.24175415E1,4.3601953E2,3.0569672E1,0E0,5.5497284E0,1.2630814E1,8.730322E1,3.0185095E2,8.7214844E2,8.679785E1,1.144968E3,1.7688477E2,7.18458E2,6.244768E2,2.2913215E3,5.3569037E2,8.4977014E2,0E0,0E0,0E0,0E0,0E0,0E0,0E0,0E0,0E0,0E0,0E0,0E0,0E0,0E0,0E0,0E0,0E0,0E0,0E0,0E0,0E0,0E0,0E0,0E0,0E0,0E0,0E0,0E0,0E0,0E0,0E0,0E0,0E0,0E0,0E0,0E0,0E0,0E0,0E0,0E0,0E0,0E0,0E0,0E0,0E0,0E0,0E0,0E0,0E0,0E0,0E0,0E0,0E0,0E0],"parents":[2147483647,0,0,1,1,2,2,3,3,4,4,5,5,6,6,7,7,8,8,9,9,10,10,11,11,12,12,13,13,14,14,15,15,16,16,17,17,18,18,19,19,20,20,21,21,22,22,23,23,24,24,25,25,26,26,27,27,28,28,29,29,30,30,32,32,33,33,34,34,35,35,36,36,37,37,38,38,42,42,43,43,44,44,45,45,46,46,47,47,48,48,50,50,51,51,52,52,53,53,54,54,55,55,56,56,57,57,58,58,59,59,60,60,61,61,62,62],"right_children":[2,4,6,8,10,12,14,16,18,20,22,24,26,28,30,32,34,36,38,40,42,44,46,48,50,52,54,56,58,60,62,-1,64,66,68,70,72,74,76,-1,-1,-1,78,80,82,84,86,88,90,-1,92,94,96,98,100,102,104,106,108,110,112,114,116,-1,-1,-1,-1,-1,-1,-1,-1,-1,-1,-1,-1,-1,-1,-1,-1,-1,-1,-1,-1,-1,-1,-1,-1,-1,-1,-1,-1,-1,-1,-1,-1,-1,-1,-1,-1,-1,-1,-1,-1,-1,-1,-1,-1,-1,-1,-1,-1,-1,-1,-1,-1,-1,-1],"split_conditions":[1.7986968E-1,9.203072E-2,-5.7259154E-1,-2.000343E-1,-2.4692018E-2,-5.9495743E-2,3.178036E-2,1.5E0,-3.0659038E-1,-2.1670082E-1,2.2983016E-1,8.7416494E-1,-3.8464606E-1,6.5342855E-1,-2.0472395E-1,-5.665809E-1,1.6450658E-1,3.7901893E-1,8.797521E-1,-7.2034955E-2,-2.730099E-1,-6.477378E-2,1.5739721E-1,7.239226E-1,2.8679928E-1,4.5E0,-2.4747373E-1,-9.019245E-1,3.6158228E-1,-1.08467355E-1,5.554445E-1,4.1424397E-1,1.2068004E-1,-6.446936E-2,4.2348278E-1,9.1997065E-2,1.6462174E-1,-4.92305E-1,1.3501199E-1,6.073767E-1,-3.3130106E-1,5.589643E-1,4.208821E-2,5.8729434E-1,1.640814E-1,1.6202934E-2,2.1830225E-1,1.322179E-1,-5.731395E-1,1.2163982E0,4.5E0,7.356515E-1,1.826363E-1,-8.2403874E-1,1.3406938E-1,3.0257168E-1,-9.005544E-1,-2.0344885E-1,-1.3897546E-1,-8.025584E-1,-3.6223245E-1,-2.2822522E-1,4.1091207E-1,-2.2505054E-1,4.8412883E-1,4.7684452E-1,6.83363E-1,1.6754334E0,6.790064E-1,-1.9295906E-1,6.0968345E-1,5.6268746E-1,1.4941916E0,4.4740295E-1,-4.2056823E-3,6.1142296E-1,1.1212823E0,6.440494E-1,1.3840425E0,-2.4802359E-3,-3.342883E-1,2.3325197E-1,8.954288E-1,4.419101E-1,6.229361E-1,1.0285441E0,5.6858873E-1,3.9674622E-1,-1.693056E-1,6.4213943E-1,-2.7192545E-1,4.4183967E-1,7.790128E-1,7.432449E-1,4.4436616E-1,1.4200377E0,7.218944E-1,-6.365593E-2,6.018153E-1,6.710577E-1,-8.7119415E-2,1.0284233E0,5.1692724E-1,6.0724837E-1,-5.267594E-3,3.5477498E-1,7.515787E-1,4.1964436E-1,-1.0155406E-1,9.5727694E-1,-1.4841208E-1,4.4518444E-1,-1.2729654E-1,4.7958877E-2,-3.2254856E-2,-9.981801E-2,6.914178E-1],"split_indices":[92,30,24,10,9,76,98,129,44,75,20,9,49,39,33,16,92,10,61,81,82,86,92,124,89,129,114,19,28,93,89,0,68,78,89,73,92,49,92,0,0,0,117,89,108,21,115,74,24,0,129,104,68,88,113,85,52,111,125,45,46,80,3,0,0,0,0,0,0,0,0,0,0,0,0,0,0,0,0,0,0,0,0,0,0,0,0,0,0,0,0,0,0,0,0,0,0,0,0,0,0,0,0,0,0,0,0,0,0,0,0,0,0,0,0,0,0],"split_type":[0,0,0,0,0,0,0,0,0,0,0,0,0,0,0,0,0,0,0,0,0,0,0,0,0,0,0,0,0,0,0,0,0,0,0,0,0,0,0,0,0,0,0,0,0,0,0,0,0,0,0,0,0,0,0,0,0,0,0,0,0,0,0,0,0,0,0,0,0,0,0,0,0,0,0,0,0,0,0,0,0,0,0,0,0,0,0,0,0,0,0,0,0,0,0,0,0,0,0,0,0,0,0,0,0,0,0,0,0,0,0,0,0,0,0,0,0],"sum_hessian":[1.6560672E5,5.637732E4,1.092294E5,5.5835176E4,5.421442E2,1.2431424E4,9.679798E4,3.1501852E2,5.552016E4,1.0188073E2,4.4026352E2,7.871344E3,4.560079E3,4.256884E4,5.4229137E4,5.3231945E1,2.617866E2,3.8426624E2,5.513589E4,8.182676E1,2.0053968E1,3.590659E1,4.0435693E2,7.820937E3,5.040736E1,1.469456E2,4.413134E3,4.1128547E4,1.4402906E3,1.3623208E4,4.060593E4,1.887593E1,3.4356014E1,2.2824489E2,3.3541702E1,1.5752544E2,2.267408E2,5.502847E4,1.0742344E2,3.5834954E0,7.824326E1,1.204053E1,8.013437E0,2.7754637E1,8.151952E0,3.5432047E2,5.0036457E1,7.7467993E3,7.4137505E1,9.209564E0,4.1197796E1,6.603986E1,8.090574E1,3.1379962E2,4.099334E3,1.5287943E2,4.0975668E4,4.8039105E2,9.5989954E2,1.0181118E4,3.442089E3,3.0489303E4,1.0116627E4,3.197477E1,2.3812451E0,1.5491379E2,7.33311E1,1.1622885E1,2.1918816E1,1.1545925E2,4.2066177E1,2.0468675E2,2.2054043E1,2.5156969E2,5.47769E4,9.071432E1,1.6709126E1,3.1761026E0,4.837335E0,2.7448368E0,2.50098E1,1.0406685E0,7.111283E0,1.4604184E2,2.0827864E2,3.8789898E1,1.1246558E1,1.23554E2,7.6232456E3,7.1212906E1,2.9245975E0,1.0919816E1,3.0277979E1,2.6280754E1,3.9759113E1,5.2501747E1,2.840399E1,8.320513E1,2.3059448E2,1.4043376E2,3.9589004E3,1.0674805E2,4.6131382E1,2.7552972E2,4.070014E4,1.4968185E2,3.307092E2,4.321408E2,5.277587E2,4.5198345E1,1.013592E4,8.27553E2,2.6145361E3,1.3255467E4,1.7233838E4,9.993941E3,1.2268575E2],"tree_param":{"num_deleted":"0","num_feature":"131","num_nodes":"117","size_leaf_vector":"0"}},{"base_weights":[-3.515599E-2,-1.0190725E-1,1.0714135E-2,3.890006E-1,-1.2266526E-1,-6.4834885E-2,9.140973E-2,2.5964177E-1,2.2768362E0,-1.6135879E-1,6.2284254E-2,-5.2113575E-1,-4.321783E-2,6.314922E-1,6.288994E-2,1.5974962E0,1.16534956E-1,2.5299191E0,1.5726496E0,-1.1195313E-1,-3.6199358E-1,9.534387E-3,1.5639595E0,2.057358E0,-6.104808E-1,-7.7053584E-2,2.9477316E-1,8.3366483E-1,-1.2142204E-1,1.4281648E-1,-1.1191301E-1,1.8004382E0,-4.5102274E-1,3.0187946E-2,1.5480268E0,1.6626728E0,2.6577995E0,2.549378E0,1.3639152E0,2.782311E0,-1.19548194E-1,-4.4232067E-1,5.0620645E-1,-1.8336052E-2,1.6869227E0,1.8586878E0,-1.4373899E0,8.2979834E-1,2.5009377E0,-6.651578E-1,1.6506897E0,-1.5828381E-1,6.472098E-2,1.5012845E-1,1.6715397E0,2.4158455E-1,9.98442E-1,1.403353E-1,-5.7588696E-1,2.8514633E-1,-9.36482E-2,2.6931983E-1,-3.1280872E-1,1.4225168E0,2.3913686E0,-1.2306863E0,1.9300648E0,-3.0199217E-2,1.9618591E0,1.8522991E0,-2.8030905E-1,3.0461717E0,2.3214839E0,1.1786121E0,1.6716778E0,3.356754E0,1.7109573E0,-2.5787625E-1,-4.6713166E-2,-4.7662425E-1,8.768895E-1,-5.600575E-1,1.6393493E0,1.2988036E0,-4.978057E-2,2.1637666E0,8.318019E-1,2.2644818E0,1.6277268E0,-7.889502E-1,1.282172E0,3.246486E0,1.9517127E0,1.8165944E0,-6.9761664E-1,1.3359867E0,2.0576375E0,-1.7945068E-1,7.9485345E-1,9.338923E-1,2.3210863E-2,1.6252173E0,6.7982145E-2,-8.7838644E-1,1.886727E0,6.857958E-1,-4.559621E-1,1.082402E0,6.154133E-1,-5.656991E-2,7.864168E-1,3.4414402E-1,-9.1375774E-1,1.63401E0,1.5186849E-1,-4.2039305E-1,8.443629E-2,1.8460099E0,1.0231237E-1,-6.5236807E-1,6.381784E-3],"categories":[],"categories_nodes":[],"categories_segments":[],"categories_sizes":[],"default_left":[1,1,1,1,1,1,1,1,1,1,1,1,1,1,1,1,1,1,1,1,1,1,1,1,1,1,1,1,1,1,1,1,1,1,1,0,1,0,1,1,1,1,1,1,1,1,0,1,1,1,1,1,1,1,1,1,1,1,1,1,1,1,1,0,0,0,0,0,0,0,0,0,0,0,0,0,0,0,0,0,0,0,0,0,0,0,0,0,0,0,0,0,0,0,0,0,0,0,0,0,0,0,0,0,0,0,0,0,0,0,0,0,0,0,0,0,0,0,0,0,0],"id":12,"left_children":[1,3,5,7,9,11,13,15,17,19,21,23,25,27,29,31,33,35,37,39,41,43,45,47,49,51,53,55,57,59,61,63,65,67,69,-1,71,-1,73,75,77,79,81,83,85,87,-1,89,91,93,95,97,99,101,103,105,107,109,111,113,115,117,119,-1,-1,-1,-1,-1,-1,-1,-1,-1,-1,-1,-1,-1,-1,-1,-1,-1,-1,-1,-1,-1,-1,-1,-1,-1,-1,-1,-1,-1,-1,-1,-1,-1,-1,-1,-1,-1,-1,-1,-1,-1,-1,-1,-1,-1,-1,-1,-1,-1,-1,-1,-1,-1,-1,-1,-1,-1,-1],"loss_changes":[4.980885E2,6.752152E2,5.878166E2,6.558927E2,4.5493097E2,4.9117535E2,7.1807336E2,4.8169968E2,2.6721375E1,5.210674E2,8.7125604E2,5.2014087E2,5.437706E2,3.5603687E2,6.1872815E2,1.018916E2,2.8113196E2,9.452332E0,6.346733E0,9.2764325E2,7.246168E2,4.968298E2,3.3284247E2,3.912265E1,2.703338E2,4.977532E2,8.614082E2,1.7961035E2,5.906663E1,1.02281757E3,1.0643231E3,4.604724E1,4.4545532E1,2.5043576E2,7.250046E1,0E0,6.947632E0,0E0,4.1649628E-1,6.22323E1,4.2390198E2,4.30687E2,1.0642877E3,4.330412E2,6.90253E1,2.8208862E1,0E0,1.6813532E1,1.621753E1,1.7260602E2,3.872406E0,5.545E2,5.6800867E2,4.744749E2,2.2732446E2,1.2508184E2,4.5700928E1,4.017307E1,5.670702E1,3.4102583E3,6.645131E2,1.2626873E3,9.8636847E2,0E0,0E0,0E0,0E0,0E0,0E0,0E0,0E0,0E0,0E0,0E0,0E0,0E0,0E0,0E0,0E0,0E0,0E0,0E0,0E0,0E0,0E0,0E0,0E0,0E0,0E0,0E0,0E0,0E0,0E0,0E0,0E0,0E0,0E0,0E0,0E0,0E0,0E0,0E0,0E0,0E0,0E0,0E0,0E0,0E0,0E0,0E0,0E0,0E0,0E0,0E0,0E0,0E0,0E0,0E0,0E0,0E0,0E0],"parents":[2147483647,0,0,1,1,2,2,3,3,4,4,5,5,6,6,7,7,8,8,9,9,10,10,11,11,12,12,13,13,14,14,15,15,16,16,17,17,18,18,19,19,20,20,21,21,22,22,23,23,24,24,25,25,26,26,27,27,28,28,29,29,30,30,31,31,32,32,33,33,34,34,36,36,38,38,39,39,40,40,41,41,42,42,43,43,44,44,45,45,47,47,48,48,49,49,50,50,51,51,52,52,53,53,54,54,55,55,56,56,57,57,58,58,59,59,60,60,61,61,62,62],"right_children":[2,4,6,8,10,12,14,16,18,20,22,24,26,28,30,32,34,36,38,40,42,44,46,48,50,52,54,56,58,60,62,64,66,68,70,-1,72,-1,74,76,78,80,82,84,86,88,-1,90,92,94,96,98,100,102,104,106,108,110,112,114,116,118,120,-1,-1,-1,-1,-1,-1,-1,-1,-1,-1,-1,-1,-1,-1,-1,-1,-1,-1,-1,-1,-1,-1,-1,-1,-1,-1,-1,-1,-1,-1,-1,-1,-1,-1,-1,-1,-1,-1,-1,-1,-1,-1,-1,-1,-1,-1,-1,-1,-1,-1,-1,-1,-1,-1,-1,-1,-1,-1],"split_conditions":[-2.7531302E-1,-4.720186E-1,-5.446832E-1,7.46125E-1,1.4879006E-1,-5.372254E-1,2.3930524E-1,-2.4405215E-2,1.6901606E-1,-8.540763E-2,7.7526534E-1,-1.326204E-1,8.6402047E-1,2.1828625E-1,-6.088184E-2,-3.2130176E-1,5.302776E-1,-4.806078E-1,9.037157E-2,-1.6994928E0,3.124296E-1,6.571982E-1,8E0,5.6443647E-2,4.7908932E-2,1.8445356E-4,2.745202E-1,2.5E0,-8.489477E-2,2.3904586E-1,-2.8565038E-2,1.4694051E-1,-1.3541552E-1,3.8639992E-1,7.536987E-1,4.9880186E-1,6.460526E-1,7.648134E-1,1.5228903E-1,8.448905E-2,-1.8079984E-1,5.600369E-1,-9.162921E-2,-4.0531307E-1,4.490029E-1,7.8505605E-1,-4.3121698E-1,-2.3674025E-1,-4.5412883E-1,-3.4112245E-1,-7.067324E-1,6.5238917E-1,-4.3644556E-1,-3.239066E-1,-3.376787E-1,1.7660977E-1,1.9431329E-1,-2.740085E-1,-4.9289346E-1,-7.727025E-1,-3.8749027E-1,-4.6318552E-1,-3.9916104E-1,4.2675507E-1,7.174106E-1,-3.692059E-1,5.790195E-1,-9.059765E-3,5.885578E-1,5.5568975E-1,-8.409272E-2,9.1385156E-1,6.9644517E-1,3.5358363E-1,5.0150335E-1,1.0070263E0,5.132872E-1,-7.736288E-2,-1.4013951E-2,-1.4298728E-1,2.6306686E-1,-1.6801727E-1,4.918048E-1,3.8964108E-1,-1.4934172E-2,6.4913E-1,2.4954058E-1,6.7934453E-1,4.8831806E-1,-2.3668507E-1,3.846516E-1,9.739458E-1,5.8551383E-1,5.449783E-1,-2.09285E-1,4.0079603E-1,6.172913E-1,-5.3835206E-2,2.3845604E-1,2.801677E-1,6.963259E-3,4.8756522E-1,2.0394644E-2,-2.6351595E-1,5.660181E-1,2.0573874E-1,-1.3678864E-1,3.2472062E-1,1.84624E-1,-1.6970973E-2,2.3592506E-1,1.0324321E-1,-2.7412733E-1,4.90203E-1,4.556055E-2,-1.2611791E-1,2.5330888E-2,5.5380297E-1,3.0693712E-2,-1.9571044E-1,1.9145353E-3],"split_indices":[46,127,8,10,111,103,25,27,55,110,53,45,89,19,64,46,27,97,26,5,63,59,128,54,30,126,47,130,77,109,66,56,109,50,64,0,40,0,92,124,75,97,54,59,86,40,0,2,110,33,16,47,19,14,28,20,48,8,80,16,29,29,29,0,0,0,0,0,0,0,0,0,0,0,0,0,0,0,0,0,0,0,0,0,0,0,0,0,0,0,0,0,0,0,0,0,0,0,0,0,0,0,0,0,0,0,0,0,0,0,0,0,0,0,0,0,0,0,0,0,0],"split_type":[0,0,0,0,0,0,0,0,0,0,0,0,0,0,0,0,0,0,0,0,0,0,0,0,0,0,0,0,0,0,0,0,0,0,0,0,0,0,0,0,0,0,0,0,0,0,0,0,0,0,0,0,0,0,0,0,0,0,0,0,0,0,0,0,0,0,0,0,0,0,0,0,0,0,0,0,0,0,0,0,0,0,0,0,0,0,0,0,0,0,0,0,0,0,0,0,0,0,0,0,0,0,0,0,0,0,0,0,0,0,0,0,0,0,0,0,0,0,0,0,0],"sum_hessian":[1.6267223E5,6.6255086E4,9.641716E4,2.6872139E3,6.356787E4,4.9796633E4,4.6620523E4,2.5159526E3,1.712613E2,5.2569805E4,1.0998067E4,2.2513428E3,4.754529E4,2.3373186E3,4.4283203E4,2.4213705E2,2.2738154E3,1.24076E2,4.7185307E1,4.218375E4,1.0386053E4,1.0625817E4,3.7225043E2,7.465905E1,2.1766836E3,4.321943E4,4.325858E3,1.8424708E3,4.9484772E2,3.0388576E4,1.3894629E4,2.2042151E2,2.1715551E1,2.1454253E3,1.283901E2,1.7743887E1,1.0633211E2,6.333859E0,4.0851448E1,1.0945179E2,4.20743E4,9.506947E3,8.791057E2,1.0453124E4,1.7269353E2,3.3931125E2,3.2939175E1,2.057915E1,5.40799E1,2.1259814E3,5.0702187E1,2.7476537E4,1.5742895E4,3.9155903E3,4.102675E2,4.0166547E2,1.4408053E3,3.144346E2,1.8041312E2,1.8970117E4,1.1418459E4,4.7949937E3,9.099635E3,1.3651955E2,8.390196E1,1.6722933E1,4.9926186E0,2.0813435E3,6.4081795E1,1.1006066E2,1.832944E1,4.560761E1,6.07245E1,2.8513287E1,1.2338163E1,6.98605E1,3.959129E1,1.4511522E4,2.7562777E4,9.266625E3,2.4032245E2,4.531792E2,4.259265E2,2.427925E2,1.0210331E4,1.09886665E2,6.280686E1,1.1987989E2,2.1943135E2,4.33238E0,1.6246769E1,2.085676E1,3.322314E1,2.6737137E1,2.0992444E3,3.1006786E1,1.9695398E1,2.68804E4,5.9613666E2,7.166029E2,1.5026291E4,2.0556192E2,3.7100283E3,3.1688076E1,3.785794E2,2.4540416E2,1.5626129E2,1.1802651E3,2.6054022E2,2.4168814E2,7.274646E1,4.8453743E1,1.3195938E2,1.7048274E3,1.7265291E4,4.0275156E3,7.390943E3,4.5829092E2,4.336703E3,4.408629E3,4.691006E3],"tree_param":{"num_deleted":"0","num_feature":"131","num_nodes":"121","size_leaf_vector":"0"}},{"base_weights":[-2.5902487E-2,6.907308E-3,-9.5720954E-2,5.0320342E-2,-9.069673E-2,6.253812E-2,-1.698616E-1,1.5099481E-1,-4.597619E-2,-1.4922443E-1,1.269747E-1,-3.1002415E-2,8.4313667E-1,-7.693732E-2,-3.7320995E-1,6.3352436E-2,7.1907943E-1,6.875766E-2,-2.2535047E-1,1.8866064E-1,-1.9858138E-1,1.5203683E0,3.4872554E-2,2.2016144E0,-5.3237E-2,1.9038655E0,7.3093483E-3,1.651128E-1,-2.0705457E-1,-7.8085554E-1,-1.8906607E-1,5.9148837E-2,2.8201087E0,-6.159943E-2,1.1573844E0,1.3957097E-1,-1.8033573E-1,-4.3667215E-1,1.5581226E-1,3.831685E-2,1.7828388E0,-3.489731E-2,-3.3480108E-1,6.775039E-2,1.9553527E0,-2.9444963E-2,1.9333601E0,1.4526691E0,2.6158068E0,2.5516495E-1,-1.9280654E-1,2.398111E0,7.568231E-1,1.0483878E0,-3.1486043E-1,5.0154876E-2,2.6808147E0,-3.9666256E-1,-3.9473306E-2,3.8992786E0,-8.0676085E-1,1.2772136E0,-3.295207E-1,1.9968902E-1,-8.950977E-3,2.162624E0,4.2212296E0,2.4991173E-1,-8.927424E-1,1.5014672E0,-5.7896966E-1,-2.2560894E-1,1.8942674E-1,7.5260407E-1,-2.8407747E-1,-6.5673435E-1,-8.874534E-2,1.103992E0,-8.366116E-2,2.2495248E0,-4.8986703E-2,2.5004044E0,-2.701501E-2,2.7494152E0,-6.3527435E-2,-3.5177538E-1,2.4192052E0,2.4134107E0,-2.6210842E-1,1.6160812E0,3.7150557E0,-6.521967E-2,2.2529857E0,2.7297992E-1,2.7682037E0,1.7214178E0,1.2746359E0,1.3063221E0,2.8563626E0,1.8154978E0,1.1755883E-1,-6.390698E-1,-3.734894E-2,2.6524038E0,1.4667317E0,-8.6088634E-1,1.5037806E0,1.599077E0,-6.700879E-1,-3.723878E-1,4.0787363E0,6.07884E-3,3.114382E0,3.52624E0,1.8338852E0,-4.2606196E-1,3.528158E0,2.5330086E0,-9.3204804E-2,4.6029997E0,2.009873E0,3.4644308E0,-8.2357156E-1,5.196836E-2,2.0303526E0,-3.7969443E-1,1.896199E0],"categories":[],"categories_nodes":[],"categories_segments":[],"categories_sizes":[],"default_left":[1,1,1,1,1,1,1,1,1,1,1,1,1,1,1,1,1,1,1,1,1,1,1,1,1,1,1,1,1,1,1,1,1,1,1,1,1,1,1,1,1,1,1,1,1,1,1,1,1,1,1,1,1,1,1,1,1,1,1,1,1,1,1,0,0,0,0,0,0,0,0,0,0,0,0,0,0,0,0,0,0,0,0,0,0,0,0,0,0,0,0,0,0,0,0,0,0,0,0,0,0,0,0,0,0,0,0,0,0,0,0,0,0,0,0,0,0,0,0,0,0,0,0,0,0,0,0],"id":13,"left_children":[1,3,5,7,9,11,13,15,17,19,21,23,25,27,29,31,33,35,37,39,41,43,45,47,49,51,53,55,57,59,61,63,65,67,69,71,73,75,77,79,81,83,85,87,89,91,93,95,97,99,101,103,105,107,109,111,113,115,117,119,121,123,125,-1,-1,-1,-1,-1,-1,-1,-1,-1,-1,-1,-1,-1,-1,-1,-1,-1,-1,-1,-1,-1,-1,-1,-1,-1,-1,-1,-1,-1,-1,-1,-1,-1,-1,-1,-1,-1,-1,-1,-1,-1,-1,-1,-1,-1,-1,-1,-1,